1000 100
\x00	-0.20922011 -0.35966617 0.15251204 0.08857263 0.049511723 0.24389738 0.2659641 -0.018829167 0.21723036 0.041809916 -0.120159976 -0.28014025 0.03472714 -0.2977372 -0.23210487 -0.076784536 -0.37282512 -0.008372888 0.084194764 -0.37059215 0.23196691 0.24911417 0.40175682 0.11267383 -0.07225852 0.05279962 -0.1830125 -0.0054255277 0.058940783 -0.34220392 -0.29327968 0.11506286 -0.28117597 0.3186614 -0.053466655 0.16327213 -0.03847775 0.012013331 -0.3699937 0.17269161 -0.07926 -0.18310763 0.37480557 0.047404677 -0.34592313 -0.28944674 0.17607962 -0.09288534 0.36012068 0.44024727 0.073344916 0.014513002 -0.029829398 -0.21646178 0.059245795 -0.00820069 0.104167365 0.263998 -0.013088256 0.31083107 0.13950074 0.21259516 -0.06286481 0.041524813 -0.032295927 0.048647657 0.096727386 0.14149664 -0.020116366 -0.15071957 0.12133394 -0.20473954 0.23028915 -0.048703596 -0.21773888 -0.043826908 0.026767537 0.048786305 -0.049129542 -0.18550405 -0.01822503 -0.1933166 0.14765047 0.32180986 0.13029084 0.020237416 0.17420223 -0.24260904 0.2565376 -0.41205788 0.18034081 0.1757769 0.22006926 0.062948585 0.22546974 -0.055889565 -0.13506553 -0.24726565 0.06851779 0.014663793
\x01	-0.042510457 -0.40366447 0.3808955 -0.27623436 0.048194006 -0.31091973 -0.18069947 -0.002027601 0.15203246 0.2755211 -0.17550494 -0.028902456 -0.1975702 0.12739192 -0.23534358 -0.2312175 0.12514298 -0.051033814 0.36127722 0.22294188 0.18282889 0.070706636 0.3513741 0.2830153 0.31602743 -0.26710516 -0.2628359 0.19527532 -0.15887901 0.19166426 0.20809056 0.41754025 -0.0052823275 0.07475822 0.23012033 -0.009383298 -0.338413 -0.3209385 0.0076332465 -0.063980594 -0.39741355 0.17864938 0.2635162 -0.22861573 -0.108054325 0.030156992 -0.12765417 0.0012607549 -0.012706816 0.193521 -0.24400175 -0.027810972 0.07615536 0.1454098 -0.046104074 0.116563186 -0.036484808 0.24159127 0.0827077 0.18961471 0.107045285 -0.29744318 0.11840137 -0.12503952 -0.22997428 -0.076866925 0.15035614 0.3513443 0.14924598 -0.2236236 0.16419229 -0.12019522 -0.33888656 0.30412698 0.22388786 -0.30859914 -0.30612126 -0.32998866 0.24465 -0.038233854 0.4309094 0.44733357 -0.3163567 -0.25228846 -0.020875916 -0.025611386 0.19208163 0.06404898 -0.053207755 0.18920696 0.072651036 -0.1884062 0.037504256 -0.105682 -0.028276771 -0.15148115 0.3076079 0.28397918 0.14113614 0.0054877396
\x02	0.24668474 0.20889238 -0.15760243 0.11082117 0.09534609 0.073372245 -0.3287952 -0.116772845 -0.2052807 0.09683901 -0.38567153 0.1940168 -0.17503153 0.020516008 -0.038918883 0.004286371 0.20423128 0.31167668 -0.41865394 -0.05071103 0.07614816 -0.019114219 0.10714711 -0.4484288 0.30681795 0.07991329 0.35042495 0.024780974 0.14000064 0.30855668 -0.10368626 -0.017068744 -0.04792261 -0.2361262 0.25050446 -0.16593096 0.11468077 0.32656038 0.1383672 -0.21175253 -0.06698867 -0.049553208 0.10456117 -0.015460297 0.14981288 0.15314251 0.3011385 0.03873977 -0.16566348 -0.075649396 -0.13179138 -0.26060277 0.06489369 -0.22914124 0.4656343 -0.24577986 -0.2012453 -0.15369742 0.05619783 -0.19317985 -0.2625245 0.12769118 0.26518857 0.44379163 0.17928693 -0.32885808 0.16051638 0.0059446245 -0.096523464 0.1271197 0.058216646 -0.081472196 0.15701306 0.051134333 -0.35253307 -0.21974114 -0.20479032 -0.17864083 0.12894912 -0.24269922 0.13695517 -0.15792048 0.0029607425 0.001995489 0.2138122 0.032180876 -0.38946134 0.3614403 -0.0902852 -0.14685269 0.01957567 0.4325801 -0.31989533 -0.053330835 0.32089365 0.06856448 0.23678474 -0.18697558 -0.13884874 0.28727183
\x03	0.42486137 0.15734367 0.1641286 0.40626073 -0.24203601 -0.27928254 0.38639325 0.2954908 0.45378232 0.07002123 0.38906357 0.15677048 0.088299975 0.013311617 0.00449042 -0.27161986 0.08393362 0.15461057 -0.118406214 0.0115541555 -0.21233559 -0.23783292 0.39855462 -0.32966733 0.018120566 -0.41798934 0.26266536 0.061574996 -0.018921673 -0.05190599 0.15146971 -0.26834244 0.34188956 0.009166881 0.26734653 0.05002825 0.13163565 -0.15380107 -0.13297631 0.24153915 0.45986646 0.13334209 0.15856756 0.34124213 0.23447517 -0.08408785 0.11808281 -0.27048236 5.185546e-06 0.20112701 -0.4238051 0.16842544 0.2208254 -0.10829974 -0.22037275 0.18905602 -0.46253285 0.34213084 0.06738682 -0.28116876 -0.054300517 0.37721127 0.13214251 -0.34496474 -0.1574448 -0.12324202 -0.036278397 -0.014807314 0.3057011 -0.1714571 -0.053262338 -0.17029768 -0.13155079 0.07305643 -0.07286969 0.18330264 0.17035338 0.2496672 0.004639223 -0.27191296 -0.16507898 -0.47685796 0.26960254 -0.31191483 -0.18964359 0.24431697 -0.074362725 0.45738176 -0.11474493 -0.15013182 -0.25356525 -0.19864933 -0.113556325 0.054703392 -0.066201895 0.17376196 0.27253866 -0.39509982 0.11183534 0.104453444
\x04	-0.07504384 0.10361099 -0.1430028 -0.16356435 -0.37931743 -0.014765069 -0.09713547 0.2904856 0.21585354 0.0072791725 -0.35918397 0.1269241 0.19317529 0.12915727 0.23590288 0.093162164 -0.13403767 -0.068697765 0.22828734 0.06819607 0.08750273 -0.09787376 -0.044473022 0.22232546 -0.01701352 0.034794357 0.019133836 0.017146662 0.010119155 0.2380481 -0.0999522 0.27576634 -0.072867885 -0.034157395 0.1782386 -0.31530583 -0.01859662 -0.11040802 0.0997099 0.2633654 0.17701922 -0.23346128 -0.2614596 -0.026780427 -0.12894908 -0.00985102 0.17510045 0.2063886 0.426435 0.16352127 -0.08107486 -0.08054088 -0.37368226 -0.18595245 -0.31336436 0.17377761 -0.03491238 0.17003056 0.076873265 0.013434872 0.15103659 -0.27848628 -0.24644297 -0.05633829 -0.00018353015 -0.1577178 -0.1943722 -0.12826619 -0.0288969 -0.48494512 0.057228453 -0.16678655 0.05407443 0.16189629 0.24679373 -0.21227714 -0.30598664 -0.042926773 0.024834834 0.058234274 -0.3803072 -0.15461956 0.09115061 0.19852467 -0.019580439 0.0152217895 -0.107504666 0.0040776283 -0.063832074 0.042056575 -0.30253977 0.045074478 0.35846534 -0.12016986 -0.038745746 -0.2864557 0.39548522 -0.13024253 0.07509847 0.40426126
\x05	-0.046993554 0.037442505 0.09928447 -0.014612168 0.3419382 -0.10658588 -0.3033534 0.04083572 0.047352478 0.054392554 -0.4040106 -0.056408912 0.2181099 -0.18849827 -0.3810476 -0.07536954 -0.010581784 -0.031901173 0.24276239 -0.18114997 -0.14054511 0.26095712 -0.011671627 -0.08281815 -0.1698834 0.14337605 -0.030141117 -0.04322572 0.124067284 0.007345505 -0.19995289 0.09266964 -0.06537542 -0.20358506 -0.12878752 0.0616024 -0.22401533 0.40283957 -0.12519482 0.11218372 -0.35726422 0.06011809 -0.06507374 -0.05001606 -0.25849396 -0.00048647262 0.1475158 -0.17500272 0.011582606 0.24711347 0.2913329 -0.16589405 0.011017092 -0.24814934 0.2530534 -0.03585568 -0.025473349 0.14158235 0.041146692 -0.25062573 -0.16421805 0.29459465 0.005742803 -0.229419 0.040144593 -0.109039575 0.064291716 -0.13437891 0.4518925 -0.07125059 0.26335537 -0.17249697 -0.21437074 0.07572934 0.29322773 -0.23132612 0.060036093 -0.35654467 -0.02429568 -0.11100047 0.08295081 0.26852968 0.119203046 -0.16435675 -0.11665984 -0.40088308 0.02154997 0.014632404 0.001748845 -0.006622702 0.116338536 0.04974295 -0.1506727 -0.21663845 -0.3447768 -0.093576714 -0.06546855 0.25348228 -0.06424461 0.18903153
\x06	-0.28321704 0.18993607 -0.1915475 -0.16195403 0.0039220806 0.17691979 0.061151095 0.3843529 0.0077795386 -0.004940957 -0.0037145726 0.30452952 -0.22022896 0.08311301 0.39469945 0.19490299 -0.1876191 0.25039557 -0.26733345 -0.12894152 -0.041289177 -0.15469688 0.015432507 0.052995212 0.045633346 -0.22818321 -0.21259612 0.42272282 0.23042865 -0.08675803 0.044549406 -0.44220898 0.35319036 -0.2934598 -0.3094967 0.23502107 -0.23413476 0.28231373 0.1862248 -0.16655403 0.13586126 -0.17492354 -0.33920193 -0.16210164 0.16414888 -0.07485617 -0.079871304 -0.22233385 0.05058935 0.1408641 -0.081701934 -0.13203013 -0.13271141 0.14953148 0.06900409 -0.10303516 -0.08725467 -0.014246285 -0.051592216 -0.013357751 0.21927185 -0.1823442 -0.25985795 0.3623463 0.050075267 0.030335426 -0.4838651 0.09540712 -0.03868532 0.12798369 -0.08220482 -0.23286998 -0.056938775 0.018401816 0.01733534 -0.22595009 0.091629975 0.118472755 -0.1155411 -0.4080584 -0.030182742 0.0019076467 0.10381366 -0.29268426 -0.13229369 0.28220844 0.12680167 0.25220326 -0.005310163 0.29250583 0.11711206 -0.017706081 0.08855625 -0.030630857 0.13193154 -0.035342347 0.16959378 0.08868399 0.01890735 0.092588864
\x07	0.1372439 0.1851438 -0.090027176 -0.3550372 -0.032113135 0.20991373 -0.24664228 -0.31772888 -0.027079817 -0.23616576 0.30510846 -0.0020501167 0.3335507 0.1778698 0.09662428 -0.05778396 -0.031555355 -0.34445494 0.18757357 0.0674372 -0.4091318 0.22407815 -0.17578708 -0.30222294 0.060927093 -0.1498205 0.36726558 0.02806826 0.3704428 0.2677778 -0.012360409 0.2703913 0.30199125 0.018845394 -0.031177327 -0.13011357 -0.32616097 -0.0115843415 0.1674771 -0.0708518 0.02619742 -0.03740642 -0.04017712 -0.39131963 0.1966431 -0.012869783 -0.26769134 -0.28126967 0.118998714 0.13218924 0.36390787 -0.17056349 -0.21599557 -0.12331263 0.17621474 -0.029679678 0.23740208 0.06398094 0.048907354 -0.14267007 0.017417952 0.3779617 -0.02590555 -0.11085102 0.21052957 -0.17256206 -0.3099272 -0.0040026046 -0.2069621 -0.09442808 0.07401113 0.11442441 0.0672787 0.2273336 -0.039112605 0.09091827 -0.30389223 -0.35180348 -0.05172807 0.1223415 -0.3071204 -0.013136495 -0.08813274 0.35602552 0.07162264 -0.0008153394 -0.18453056 0.083783194 -0.38682422 -0.17100093 0.3338151 -0.048312813 0.30925554 -0.003781557 -0.44261307 0.019685766 -0.07393303 0.14976457 -0.13417193 -0.30109358
\x08	0.0021235347 0.3463031 -0.12987012 0.15511149 -0.30904084 -0.08065006 -0.093403056 0.15116465 0.034395188 -0.15932235 0.1710299 0.0376997 -0.32786372 -0.14460869 0.033883613 -0.3070944 -0.48711878 0.055922236 -0.12622079 -0.32175103 -0.011591658 -0.12799671 0.13835573 -0.120842315 -0.34781665 -0.1586906 0.1298509 -0.024045274 -0.38125485 0.17849468 -0.39504212 -0.13163519 -0.30500776 0.33797532 0.043183118 -0.20142496 0.11722331 -0.09473005 0.14572053 -0.082405865 0.23484974 -0.0750089 0.08391361 -0.14670166 0.20618205 -0.23920205 0.08368172 0.17558551 0.26832008 0.17565921 -0.33567223 -0.14050817 -0.32900202 -0.0534605 -0.15512307 -0.100841776 -0.21681978 0.10644452 0.30326954 0.025852438 -0.1660244 0.23745461 0.09788016 -0.08364463 -0.30312142 0.22058281 0.08738244 0.44718504 -0.1288773 -0.2918176 0.089342244 -0.18516013 0.32578516 -0.22175854 -0.05865153 0.043916374 -0.14374462 -0.1721579 0.3448444 -0.17458537 -0.12385966 -0.3144348 0.02119768 0.24255106 0.36100358 0.114949554 -0.04163628 0.37426612 0.008655071 0.23457156 0.1068867 -0.108983144 -0.398541 0.06688981 0.28304148 0.033188894 -0.1749519 0.13800822 -0.16481033 -0.20820716
\x09	-0.3368729 0.27171656 -0.04404378 0.41278917 -0.07242502 0.31718445 -0.052616753 -0.032556925 -0.02065301 0.3881712 -0.13942097 0.28054214 0.2524523 -0.12120609 0.4349943 -0.08157707 0.083567604 -0.12082453 -0.20538945 0.074998096 0.21387148 -0.3961864 -0.20010889 -0.42550704 0.33194268 0.044625796 0.037208617 0.07279007 0.020249356 0.0029665977 0.21324596 -0.011877313 -0.036732882 0.22193485 -0.15085822 -0.31628135 0.4669891 -0.008216292 0.10399923 0.31261265 0.296454 0.10462932 -0.1502911 -0.0022297204 0.09315296 0.105366796 -0.040658116 0.15644313 -0.16569425 -0.34767872 0.12052514 -0.28999406 -0.056242656 -0.03640435 0.021162502 0.27472758 0.22945587 -0.17514175 -0.30401015 -0.25256717 0.08941899 -0.13362648 -0.10628411 -0.3979206 0.42332458 -0.17959304 0.22940622 0.23049028 -0.10602765 0.13401738 0.2347589 0.27165514 0.10121467 -0.120527156 -0.047131605 0.1646811 -0.15570301 0.19481716 -0.45045468 0.024676453 0.16617247 -0.12687434 -0.08495506 -0.1176017 -0.11314504 0.06463061 -0.3162673 -0.056446016 -0.33867604 -0.13673438 -0.24570483 -0.11610276 0.33928865 0.03786507 0.19697051 -0.15360078 0.13036335 0.039266042 0.013931066 -0.3932374
\x0a	-0.16492027 -0.47186252 -0.49173185 -0.2710751 0.6458555 -0.08275743 -0.06917833 -0.042281218 0.08952142 -0.16926917 -0.60419697 -0.037862755 -0.3812549 -0.15280628 0.13111295 0.24674675 -0.02314688 0.448834 -0.58017635 0.11996739 -0.20232649 0.14099833 -0.020813398 -0.2584456 0.08553807 -0.38421422 0.6360028 0.13086274 -0.021822304 -0.15334395 -0.2836719 0.34221494 0.35596526 0.1928631 -0.4761548 -0.1969872 -0.255881 0.3441468 -0.48140392 -0.34583578 0.85922015 -0.031926423 0.5652163 -0.5343586 0.052937537 0.3733316 -0.32398957 0.19891876 0.010429047 -0.06415582 0.38355547 0.46297538 0.36418784 -0.7326189 0.13676079 -0.16111168 -0.31595254 -0.015479833 0.7689131 -0.112350576 -0.020436881 -0.31214184 0.11515556 -0.29262045 -0.12601514 0.3173673 0.9556112 0.34278458 0.02724712 -0.31724346 -0.04576972 -0.062510654 -0.15781213 -0.34792662 0.049174476 -0.41686654 0.38474596 -0.49196365 0.19094549 0.23009545 0.34631795 0.26102203 0.78378654 -0.4835132 -0.10116334 -0.052007653 -0.26799998 0.3644503 -0.42225027 -0.2149393 0.07145815 -0.09169352 0.1363101 -0.5142925 0.47554365 0.053159602 -0.31101584 -0.7521938 -0.21049981 -0.41324103
\x0b	-0.13931355 -0.20863941 0.1913954 0.182177 0.07777807 0.17687163 -0.2978694 -0.0025981516 -0.12391698 0.13494429 -0.29088372 0.033021003 -0.023873776 0.16384217 -0.20087907 -0.1774462 -0.024787936 -0.24826795 0.108648315 0.11099154 -0.4513751 -0.021485481 0.11536016 -0.29765183 0.1950704 -0.049001567 0.003437166 -0.2722958 0.06405351 -0.29580504 0.27098215 0.30977002 -0.003002286 -0.21985793 0.2360961 0.18957645 -0.09189567 0.040790737 -0.35706556 0.33831832 0.17403466 -0.26750585 0.121263474 -0.21350627 -0.26815403 -0.051757548 -0.12555256 -0.27493858 0.030827777 -0.13784263 0.008324957 0.14958219 0.028258234 0.061670065 0.057493128 -0.17959096 -0.19874665 -0.17151195 0.12189392 -0.051119063 -0.18161362 -0.24089396 -0.11927827 0.030167282 0.43260145 -0.13489506 0.029457226 0.45419046 0.21461359 0.19027326 -0.11308133 -0.025676727 0.00628154 -0.18823302 0.3329149 -0.23036844 -0.24944186 0.075286925 0.37660006 -0.1026339 -0.04022576 0.10660821 -0.1533089 0.19813158 -0.0070585385 -0.09274083 0.07075291 0.12344848 0.11046204 -0.09204318 -0.015886873 0.05418238 -0.022790983 0.13474046 0.09289023 0.06307359 -0.19053571 0.22907689 -0.3200107 0.16176096
\x0c	-0.11019704 -0.12733822 -0.26420873 -0.20499423 0.29149967 -0.19935605 0.13569114 -0.06602776 0.1731009 0.13967592 -0.09332975 -0.10202934 -0.11039854 -0.18864083 0.06761286 0.22387071 -0.3727445 0.18131995 0.020228233 -0.19634666 0.24049096 0.071410134 0.18571463 0.3362286 -0.06499674 0.058247052 -0.12622623 0.4059834 -0.04090172 0.10539476 -0.023469508 -0.16664708 0.1347738 0.07501577 0.3441855 0.029320061 -0.24576719 -0.13058256 -0.0068345517 0.25936055 0.37076467 -0.028245185 -0.0050681382 0.027961174 0.17437488 0.06938874 -0.09720904 -0.05110416 -0.3548212 -0.0076149255 -0.024797976 -0.14114219 0.32272404 0.041441217 0.069424845 0.16346678 0.082852915 0.01222989 -0.17922635 0.2645945 0.15929352 0.11179248 0.25830343 -0.20842898 -0.14886439 -0.058892384 -0.16949174 0.10667679 -0.09456642 0.4099893 0.26719818 -0.022736788 0.10616109 -0.21829313 0.13660088 -0.26324996 -0.39410293 0.060504794 0.1719378 -0.105529085 0.35955608 0.046419602 -0.05899783 0.06296218 -0.09758425 0.061255544 -0.32799676 0.17503005 -0.00796254 0.17995414 0.4027563 0.35841653 0.13906294 -0.44991893 -0.39302585 -0.011229709 0.07546698 0.27793398 -0.19998696 0.16329102
\x0d	-0.046688385 0.12328221 -0.26462194 0.10631707 -0.027177513 -0.008524515 -0.0547446 0.091512635 -0.116019085 0.07761106 -0.18075937 -0.30240297 0.06877673 0.2829186 0.21771786 -0.015227497 -0.19880608 -0.0035226494 0.15405396 -0.092974074 0.062424064 0.033651263 0.23908103 0.31546247 0.45404506 -0.04954858 0.28162715 0.025808094 0.01399909 0.00044380128 -0.008014736 -0.122555666 0.42718482 -0.05317328 -0.15491074 0.34827018 -0.19117391 0.01192154 0.26968434 0.012033008 -0.3794297 -0.223751 -0.038924906 0.16031905 0.108371854 0.33175394 -0.07858538 -0.11467916 -0.38298154 -0.15247066 0.05993189 0.07641697 -0.070771486 0.30088952 -0.33048844 0.08055216 0.24856606 -0.18227772 -0.029045813 0.03311737 -0.2473302 -0.18353646 -0.15964541 -0.07797009 -0.122732 0.19434972 0.024477676 0.3510996 -0.07259358 -0.123713076 -0.08944174 -0.35665148 0.056399498 0.059082653 0.1485605 0.35849503 0.024349958 0.12447959 -0.15948497 0.016103767 -0.22710875 0.2922983 0.10026195 0.46256083 -0.04414564 0.06666983 -0.20163125 -0.026958168 -0.1840559 0.22774485 -0.2430814 0.21182556 0.10234291 -0.079046264 -0.08147949 0.37080157 -0.03520636 0.18134558 -0.10139653 0.25412574
\x0e	-0.08816089 -0.3004574 -0.22396784 -0.1374729 -0.057919122 -0.19055793 -0.24359731 0.0033344775 0.21859604 0.442573 -0.037711874 0.36043963 -0.023558527 0.12911178 -0.23803116 0.21938603 0.30614516 0.02466993 0.119932115 0.18350233 0.44613212 -0.16451015 0.018352136 0.28264022 0.14730275 -0.37464136 0.019729614 -0.42593622 0.1565 0.014687479 0.13629684 -0.36671433 0.01771254 -0.15589207 -0.108018994 0.05335115 -0.36688918 0.15664783 0.015052285 0.114221305 0.3851496 0.0013668239 0.08954365 0.08716549 -0.3732972 -0.093253605 0.059566874 -0.015002999 -0.28054193 -0.36816397 -0.09250059 0.2244444 -0.35179782 0.33987835 0.41225967 -0.07083452 0.18999512 0.3358361 -0.1031981 -0.24708624 -0.4303168 -0.38617367 0.36792523 0.0012763143 0.010197865 0.09563521 0.2782787 -0.017576747 -0.23326752 -0.055510864 0.03037171 -0.13534422 0.010080442 -0.2710131 -0.08124182 -0.28983146 -0.08522095 -0.07164094 0.20592561 0.38892764 0.18600714 -0.13711536 -0.10186117 -0.021450967 -0.017854897 0.2614926 -0.31329665 -0.078150675 0.24142563 -0.06710552 0.06458937 -0.05797086 -0.36757502 0.2764724 0.13465664 0.029260546 0.07001683 -0.0099298805 -0.0015110224 -0.26730213
\x0f	-0.009315997 0.20536546 0.12212734 -0.33609438 0.22716574 0.018152595 0.0021474548 0.16189279 0.14381854 0.3162527 -0.321823 0.14608675 -0.48805657 -0.09181322 0.100654304 0.17788576 -0.24202543 -0.34768623 0.15164022 0.1545093 -0.30930352 0.057505645 -0.31086648 0.07765197 0.056146692 -0.00022897124 0.1399737 -0.12664522 -0.19734746 -0.008328401 0.35743445 -0.19285184 0.16330971 0.044432282 -0.11829211 -0.24099714 0.12534386 0.33881348 -0.112124756 -0.093749434 0.39495757 -0.22874928 -0.07884514 0.17644131 0.1551176 -0.11244723 0.18282141 0.087017566 -0.28432885 0.30942473 0.12850514 0.2990497 0.056417108 0.08285278 -0.105064645 -0.38709283 -0.20135953 -0.31898373 0.17994845 0.09905637 -0.28292274 -0.2835273 -0.19863595 0.1802963 -0.03498655 -0.14423996 -0.4810597 0.40982485 -0.11159286 -0.19252272 0.20661083 0.043110266 0.06838134 -0.13842887 0.043410882 -0.18903106 0.48295754 0.26477873 0.07184789 -0.1641047 0.3012215 0.01251024 -0.056033373 -0.27715188 -0.20139302 0.06896117 -0.20749056 0.11406241 0.42061496 -0.08675556 0.10632076 0.15618844 0.17235954 0.2990851 0.0004389137 0.08043492 -0.1957465 -0.0833445 -0.0774385 0.12019327
\x10	0.13170266 0.11815868 0.371504 0.17739928 0.007237062 -0.12537163 0.11450207 -0.10217643 0.18709876 -0.2960347 0.11176091 -0.25971845 0.0067182407 0.18080091 -0.07020854 0.2590243 0.47688794 -0.11140723 -0.3524651 0.04294924 0.4189 0.13763168 -0.19530009 -0.13165651 -0.36734772 -0.16598868 0.12840925 0.03692709 0.40086824 0.100219876 0.14232102 -0.17785957 -0.20933443 -0.31970072 0.056033764 0.00910037 -0.16671549 0.019978598 -0.018207327 -0.32616854 -0.11393898 -0.097089395 -0.06342066 0.23465535 -0.16969818 0.20286846 -0.051682316 -0.114699535 0.0111453235 -0.2325323 -0.23470151 -0.26051587 0.2772492 0.30171412 0.087411284 -0.037676856 0.13392967 -0.22617948 -0.26582462 0.21449566 0.008755937 -0.051609904 0.23352908 -0.27173728 0.27826548 0.04584922 0.2723877 0.10238406 0.05473931 0.17832376 0.10909474 -0.008854538 -0.20169887 -0.25169414 0.10933636 -0.11197984 -0.11416383 0.11892784 -0.2467388 -0.10185872 -0.14553468 0.15077105 -0.21214159 -0.23568815 0.0112075955 -0.1615301 -0.10597683 -0.23286499 0.062547445 0.03591627 0.33448106 0.36391243 0.15492553 0.30134374 -0.052863803 -0.00932508 -0.11172581 0.33617917 0.14369799 0.066239275
\x11	-0.3056939 -0.27644485 0.06097822 -0.121456616 0.20479903 0.09860265 -0.236411 -0.222062 -0.20589954 -0.41184038 0.2558465 0.05490023 -0.079717964 -0.15172336 0.08339418 0.32882166 0.40164024 -0.05886466 -0.0239577 -0.24564359 0.009550402 -0.007637784 0.36244744 -0.039042518 -0.010836497 0.21345389 0.18578166 0.106704265 0.1396229 0.019904975 -0.43802303 -0.3438918 0.40646896 0.1849702 0.2391524 0.23161587 0.13973 0.2743944 0.13476771 -0.4114154 -0.18523149 -0.12983385 -0.17620178 0.36114335 0.09159905 -0.0036097616 0.06056594 0.10428253 0.10306859 0.24717286 -0.10606745 -0.065573104 -0.25746202 -0.14253044 -0.11668137 -0.06240958 0.028083965 0.32242814 -0.37329447 0.13847317 0.15315893 -0.022691514 -0.115615085 0.09521881 -0.23187914 -0.24343851 0.38225305 0.17942597 0.3810651 -0.09959996 0.066717476 -0.09708636 0.046384394 -0.2442185 -0.41696352 0.385473 -0.04138115 0.23582539 0.15819073 -0.28374106 -0.09300006 0.19448239 -0.02866786 0.0006555319 -0.08703231 -0.04277616 0.21738832 0.14031059 0.0714425 -0.06537006 0.21257937 0.16484873 0.04606618 0.33659172 -0.1773048 -0.15608528 0.29831958 -0.24276507 -0.13355455 -0.20793667
\x12	0.14038563 -0.19159055 -0.2547876 0.32748193 -0.1266851 0.025958031 -0.19336416 -0.13166097 -0.27579966 0.3629322 -0.10251072 0.04900062 -0.19268651 0.13153824 -0.38966608 -0.04813221 -0.043239303 -0.0120591875 0.10705816 0.29428312 0.057105623 -0.12674202 0.017937154 0.075936064 -0.036220506 0.4139008 0.055599317 0.008414969 -0.10072584 -0.15736291 0.12219983 0.25200322 -0.39797294 -0.049477756 0.012474865 -0.39553466 0.12298438 0.2132036 -0.04157473 0.13915345 -0.036683716 0.13870296 0.16093254 0.18050501 0.2571565 0.018148527 -0.069644496 0.09832068 -0.21316516 0.24010506 0.047418512 0.020350449 -0.041369952 -0.052094027 0.18440919 0.029989854 -0.09394055 0.15638237 0.10089305 -0.05622354 0.29487 -0.035553172 -0.077851616 -0.021017417 -0.28555468 -0.05378404 0.015854001 0.0077606365 -0.13207906 0.18851057 0.24258155 0.15384418 -0.29508376 0.17241386 0.4674348 0.112814285 0.32320648 0.32703564 0.04727748 -0.04155776 0.32019588 -0.13469787 0.035001446 0.05133237 0.1284691 0.015686333 -0.1192705 0.20174271 0.3305493 0.3566677 -0.047084324 -0.3380174 0.13450006 -0.041738316 -0.20750429 -0.19314289 -0.16114804 -0.38590208 -0.32662848 -0.0394397
\x13	-0.2831424 -0.29562902 0.025661767 -0.3964547 -0.13905147 0.091861196 -0.016785827 0.026802167 0.034047246 0.027575612 -0.03139836 0.1126999 0.021326713 -0.39402416 0.10803029 0.40653205 -0.23139487 0.101312526 -0.10202327 0.19723848 -0.31094176 0.21733965 0.17982437 -0.04990849 0.15645957 0.20732525 0.18146995 0.18871629 0.288078 0.060479775 0.14418304 -0.12026203 0.031114604 0.2148865 0.39069194 0.097321674 0.057325162 0.23779532 -0.09229532 0.06749511 -0.07883154 -0.08525098 -0.23853438 0.44150558 0.31921834 -0.05617842 0.06680508 -0.038626265 -0.084668905 -0.1955513 0.43138206 -0.08151595 -0.05353374 0.0990509 0.15340981 -0.05131835 0.22535217 0.13212971 -0.2547088 -0.04920545 -0.06435439 -0.0082913935 0.05463299 0.21728186 -0.08065391 0.1492491 0.1149831 -0.15044025 -0.2414765 -0.19197136 0.4760645 -0.1187425 0.26029837 -0.33402592 -0.19188263 -0.034265935 0.16524939 0.11070338 0.02669806 0.16160136 0.16549273 -0.11163482 -0.11520486 0.040691085 -0.19290873 0.20064622 0.39623833 -0.24040344 -0.2635746 0.070314005 -0.0763347 -0.074203126 0.10023795 -0.049719244 -0.2514277 0.21537147 -0.2861241 -0.23132345 -0.006586373 -0.19955885
\x14	0.25171098 -0.35852766 0.1169585 0.027699165 0.053776443 0.09801789 -0.014669076 0.17024861 -0.08130571 -0.27366784 -0.20964077 -0.26893482 0.27815053 0.1922771 0.3779419 0.37161857 0.040287495 0.16903573 0.007049136 -0.005764857 -0.038113043 -0.10260952 -0.40631297 -0.39891717 0.29080594 0.038853753 0.10363432 0.1836983 -0.039728463 0.03653407 -0.035556152 0.07827573 -0.075825326 0.09243816 -0.14776488 -0.0095855 -0.28674942 0.18919328 -0.106922284 0.1602512 0.16088012 0.006388247 0.2974495 -0.30980396 -0.062263213 0.31144112 -0.08359036 0.068215005 -0.05305159 0.12183052 -0.29176277 -0.12012708 0.3468247 -0.12414957 -0.22848774 -0.283262 -0.025232896 0.093866535 -0.4270723 -0.04256416 -0.08692127 0.093906865 0.038703457 -0.22975868 -0.357723 0.06542481 0.16787873 0.23668034 -0.10727605 0.13590819 0.268486 0.34164715 -0.1598762 -0.2232213 -0.13640195 0.052175872 0.42743704 -0.08341104 0.028453022 -0.10054965 -0.0644699 -0.36239734 0.045100063 -0.09882264 0.008126661 0.045744136 -0.04924442 -0.23278186 0.30134457 0.12510149 0.03180228 0.36157674 0.13585001 0.2559073 0.0839406 -0.12857184 0.2683849 0.14243633 -0.14263672 0.2276641
\x15	0.14153235 -0.27463397 -0.046571538 0.026980013 -0.2024086 -0.35858712 -0.25904238 -0.19232577 0.03896174 0.066735946 -0.26887125 -0.16607024 0.13687515 0.34672296 -0.0017007589 0.25899482 -0.10087486 -0.30173376 -0.17762223 0.23249559 -0.047354743 -0.09446395 -0.098339334 -0.43469378 -0.31250668 -0.23935366 0.24796166 0.35559762 -0.19926849 0.19745131 -0.07594578 -0.21046314 -0.20976059 -0.21368733 -0.2806735 0.34470707 0.034063164 -0.24803303 -0.09914233 -0.4789306 -0.29800236 -0.27418935 -0.4638502 -0.22473419 -0.008858174 -0.024643213 -0.027128235 -0.24497487 -0.15439916 0.14406374 -0.01465198 -0.15055564 -0.16397315 0.20341228 -0.1547027 0.10199493 -0.120142065 -0.17001885 -0.3133604 0.23465362 -0.02928225 -0.12289927 -0.18397655 0.24980402 -0.42312086 -0.102236316 0.08794662 0.008383733 0.11910309 -0.009209335 -0.39221895 0.38713083 -0.2776964 -0.12951094 0.018141434 0.20923531 0.0151122585 -0.13031301 0.101946056 -0.12739483 -0.08367047 -0.0014115646 0.10733865 0.051808156 -0.084769614 0.36189014 -0.3845032 -0.055977765 -0.0030670613 0.2555235 -0.22514096 0.027101941 0.20193033 0.06841008 0.13544472 0.004301414 0.20834984 -0.14851242 0.13229612 -0.1880396
\x16	0.0041826814 -0.18960315 -0.12713835 0.24995594 0.013703689 0.36239368 0.30098277 0.060129784 -0.11995502 -0.11941223 -0.16684109 -0.04358685 -0.1853318 -0.09669793 -0.059721496 0.18565118 -0.14650781 -0.18585888 0.22595139 -0.014700646 0.3890773 -0.021392502 -0.16495529 -0.26838338 0.23959966 -0.15889232 -0.36505884 0.3940072 0.041219547 0.25426716 0.107805476 -0.2157233 0.3030701 -0.23813833 -0.08940975 -0.10451649 0.17554155 -0.30527344 -0.014978781 -0.20660675 0.17155671 0.13032281 -0.12983263 -0.37490615 -0.48130178 -0.06349843 -0.42942554 0.14915779 0.27938956 0.104805544 0.36267275 0.35583496 -0.15618727 0.15027635 0.2897138 -0.26492518 0.16444308 -0.2763332 0.09812935 -0.12067622 -0.38472438 -0.013225481 0.17128365 0.1697056 0.20200801 -0.08575997 0.24963453 0.026119735 0.06347043 0.2841369 -0.12728973 0.10522954 0.047827855 -0.010189399 -0.007420052 -0.05140321 0.046389986 -0.1456015 -0.081171826 0.21481262 0.0063828006 -0.36167774 -0.15457958 -0.19303071 0.107046545 -0.0030562878 -0.07952875 -0.38480335 0.2708956 0.072640434 0.4625057 -0.17988563 -0.103529274 -0.23859343 0.23780236 0.078448705 0.08555546 0.101055 -0.31631932 0.033289902
\x17	0.011909679 0.18701814 -0.13652745 0.056641072 -0.39265072 -0.19246468 0.049760133 0.031700432 0.0033552349 0.056159586 0.35158372 -0.2660663 -0.18709522 -0.16245562 0.06545147 0.09935617 -0.04198426 -0.049124166 0.020873368 0.061441626 -0.16104043 -0.2407059 0.12927201 0.09537668 0.018014133 0.03454017 -0.12479292 0.16036314 0.20142752 0.18131904 0.4209997 -0.33609647 -0.009589344 0.055806626 -0.0553274 0.043132573 0.14885186 0.21723723 0.22468369 -0.069817245 -0.25330684 -0.25495327 -0.102636114 -0.25337335 -0.033660114 0.2804872 -0.054446146 -0.012106385 -0.22710867 -0.36469364 0.12302857 0.31689113 -0.1334642 -0.20583603 0.06756502 -0.019616798 -0.0813276 0.2665067 -0.08133684 0.18985087 0.06304481 -0.03273222 0.15476856 0.18569338 -0.22552432 0.0011655241 0.12881574 0.27160493 0.34134325 -0.18000135 0.1126955 -0.15819658 -0.18440792 -0.3768009 -0.09702851 -0.37039834 -0.12289249 0.28905207 0.048546437 0.23294769 0.17892364 -0.37249392 0.17862548 0.096646756 0.0011902377 -0.25549608 -0.05912196 0.17963281 0.25470546 0.022387177 -0.13493451 -0.045940034 -0.30710685 -0.07415493 -0.1547213 -0.19413735 -0.024053555 0.12969482 0.3333882 0.22174901
\x18	0.13169104 -0.12481865 0.24199623 0.028932154 0.2436411 -0.36240652 -0.19321099 0.11247397 0.10938957 0.30985355 0.3354708 0.22398075 -0.38418937 0.2197435 0.15471637 -0.18291746 -0.19037057 0.3191294 -0.15870562 0.35015917 0.030638829 0.405482 0.2128262 0.19181564 -0.10023725 -0.18696462 -0.094786696 -0.27869338 -0.41714972 0.28253406 -0.29756024 0.063098356 -0.20605111 0.31231466 -0.077329874 -0.03634602 -0.12382864 -0.32052565 -0.06939275 0.24708599 0.035967037 0.033802595 0.40492073 -0.10144599 0.056840435 -0.118686445 -0.047670677 -0.06772063 -0.22447664 0.39973414 0.31328973 -0.30378774 0.021945678 0.34309542 0.2812527 0.12598257 0.26272315 0.03120555 -0.35664612 -0.21261218 -0.06578585 -0.023324482 0.111211106 -0.02012836 0.40404052 0.25925553 -0.1406826 -0.07936071 -0.28961226 -0.06339717 0.10968327 0.23465483 -0.11924524 0.062847555 -0.05886717 -0.023699835 0.17423047 -0.35945576 0.18878904 -0.054217674 0.026889876 0.106897086 -0.2285434 0.29550946 0.16597924 -0.30756354 0.45507544 -0.037252426 -0.28120735 -0.2875818 -0.13391231 0.36161855 0.30891097 0.041468617 0.12489902 -0.31456798 0.15162997 0.30471155 0.04865426 -0.047828406
\x19	-0.15328345 0.0044127703 0.42160267 -0.14012055 0.41603827 0.16639093 0.22858864 0.4037856 0.0060333014 -0.15342902 0.24596444 -0.22355598 -0.14831883 -0.34448624 -0.00708735 0.16648625 0.12881896 -0.12536822 0.12679264 0.05068004 0.13999194 0.0019807369 0.051953338 -0.22301593 -0.24143809 0.0893734 -0.14101464 0.30598664 0.0052192807 0.42160282 -0.016903698 0.26687393 0.18412206 0.15814789 -0.31293216 0.098953485 -0.25139615 -0.37504083 0.059953883 -0.42954803 0.00036170334 0.05938357 0.37158138 0.3558399 0.30140406 0.04207222 0.18178728 -0.011804417 -0.24523136 -0.38875997 -0.12033041 -0.34759226 -0.33983868 -0.025092546 0.038802594 -0.2669057 -0.29093534 -0.3473081 -0.1694135 -0.0386504 0.16791505 0.03368485 -0.034680367 0.009025101 -0.33866867 -0.093462914 -0.09729168 0.17803964 -0.048329737 0.22792804 -0.106803164 -0.0272654 0.4471748 -0.010766715 -0.022608832 0.08461739 0.11719056 0.042634144 -0.031058721 -0.05165118 0.21918336 0.19919929 0.021977052 0.049808554 0.24691242 0.18181577 -0.16406891 -0.4195323 -0.08246761 -0.04636515 0.47655845 0.2444287 0.20440032 0.1549299 0.0053389515 -0.117368355 -0.16107498 0.18999077 0.14460087 0.23121893
\x1a	-0.122471124 -0.055858728 -0.39017636 0.03490156 0.16222808 0.2903179 0.13038704 -0.2293315 -0.071021244 0.0144317 -0.23719108 0.21473113 -0.20775633 -0.08712253 0.180478 -0.12470953 -0.15189397 0.07335561 0.29849303 -0.20933424 -0.09094863 -0.38716656 -0.0253352 0.19164029 0.24149172 -0.04441744 0.015857007 0.10128577 0.042257726 0.033241235 -0.17987029 -0.32092386 0.05408304 0.18110444 0.4031046 -0.37852037 0.029337242 -0.40174046 -0.20893526 0.24680775 0.12158326 0.07093721 -0.027964905 -0.30584633 -0.39883244 0.13600652 0.132937 0.22707422 -0.34022602 0.29612353 0.15985584 -0.03851217 -0.2049016 -0.13754837 0.07272418 0.26904947 -0.14102261 0.045176268 -0.33283728 0.40922272 -0.2485521 -0.060359027 -0.016912192 0.026425531 0.053149603 0.08053048 0.11279028 -0.12170118 -0.21893176 0.16283432 0.32760108 0.19022098 -0.21877772 0.25937697 -0.31838816 0.33069837 0.068788394 -0.35906333 -0.042797178 0.018268496 -0.13166392 -0.14410783 0.120218225 0.009746 0.1557291 0.18412471 0.064023726 0.21127819 -0.22102508 -0.3175113 0.0722633 -0.24850196 -0.025039762 -0.025061667 0.2374598 -0.016353354 0.18383494 -0.2776627 0.044213787 -0.12223819
\x1b	-0.013007894 -0.21427739 0.3365649 0.028257329 0.09069176 0.22179766 -0.17279983 0.38455477 0.32962745 0.46363795 0.45165652 -0.013113916 0.36908036 0.16145165 -0.060378082 -0.095277995 -0.25855505 0.04256825 0.014142558 0.10594053 0.36673364 0.27872804 -0.24181554 0.2741643 0.24599242 -0.32334778 -0.24581076 -0.13221207 0.040544182 -0.08048845 0.039143715 0.062148377 -0.116039544 -0.044969384 0.30646557 0.21127962 -0.16607597 0.001012966 -0.23250604 -0.17836599 0.3375826 -0.044440284 0.27952456 0.10213958 0.38367364 -0.13143131 0.23366745 -0.089406654 0.070518315 -0.028325291 -0.03643927 -0.37838203 -0.45068035 0.12592141 -0.15799867 0.3067443 0.07673271 -0.28819633 -0.16987842 0.43058175 0.05811529 0.14688307 0.116900034 -0.14786819 -0.14168018 -0.09103472 -0.01826085 0.22230524 0.32704052 0.0431206 0.04049693 0.094552584 0.12977645 0.31529 -0.06854373 0.026913963 0.31377748 0.05051072 -0.3169177 0.036781646 0.18443087 0.24453679 0.3215375 -0.024695363 -0.017894745 -0.09952341 -0.14535 -0.22378537 0.30282074 -0.17780733 0.01746869 0.1102019 0.10564648 0.12850064 0.0023520812 0.46757138 0.14920962 -0.05953026 -0.21717763 -0.270261
\x1c	0.047122605 0.009208746 -0.08971208 -0.05734072 -0.09794583 -0.047721244 -0.14820756 -0.09391954 -0.03178051 0.325194 0.11719249 -0.1255069 -0.033570692 0.36331165 0.13386735 -0.041132197 -0.16734134 0.037259925 0.17567232 0.24690318 -0.123110496 0.1530565 -0.35963285 0.12754944 -0.17303568 0.11271445 0.06337601 0.0100313425 -0.22324145 0.08165571 -0.06555184 0.15472181 -0.34358335 0.15929687 0.03021767 -0.03250713 0.098033994 -0.065039515 -0.17067598 -0.26454732 -0.10620722 -0.08500753 0.16230045 -0.04567381 -0.4261395 0.06148506 0.4060899 0.24770409 0.2629935 -0.19613186 0.2999608 -0.06805589 -0.090025604 0.16959843 -0.010144942 -0.21155033 -0.1330241 0.271046 0.051679507 -0.03841888 -0.3858199 -0.13213545 0.19241011 0.17435026 0.16417405 -0.05338286 -0.08752593 0.15836479 -0.12665528 0.052689824 -0.18519355 0.10746566 0.26635176 0.050616205 -0.4843576 -0.2933367 -0.14875868 0.091309935 0.02896218 -0.39170337 -0.1221061 0.1497864 -0.20850065 0.056689464 0.07578646 -0.28197673 0.050729923 -0.04630889 0.3962241 0.05822575 0.34386495 0.25475195 0.37293285 0.16144294 0.19625115 -0.25581706 -0.24328546 -0.059454843 0.15121976 -0.011387624
\x1d	-0.11894543 -0.07537027 0.37492627 -0.4368686 -0.033827916 0.11413638 -0.1640261 0.105138555 0.03059744 0.29461265 0.26785183 -0.093125075 -0.081034906 0.16949916 0.21050791 -0.050479144 0.29511568 0.2537125 0.039959826 0.10546677 -0.14335495 -0.085125 0.21928762 -0.07883007 -0.13970752 0.12070064 0.06780508 -0.09067124 -0.028913692 -0.04330531 -0.02139254 0.41905853 -0.060924605 0.36818045 -0.090759374 -0.14404379 0.32758653 0.01584661 -0.23661742 0.06333994 0.20555179 -0.23316014 0.32859623 0.30588585 -0.043404277 -0.29471803 0.01309146 -0.27522767 -0.10946284 -0.036450565 -0.36856562 -0.37150195 -0.0064206123 0.009498671 0.05052603 0.36563683 -0.3622605 0.057988126 -0.16728042 0.07481228 0.0083229095 0.36259407 -0.04078839 0.24293834 -0.0005598217 0.05603873 0.21423496 0.048943043 -0.37078667 -0.026097931 0.082255155 0.018829327 -0.27702153 0.3466035 -0.26066253 0.16835448 -0.053788245 0.18324512 -0.39545256 0.10503654 -0.25071448 -0.008951053 0.0284082 -0.050221786 -0.20250668 0.14718643 0.03392218 -0.39101484 0.082711786 0.050368562 0.32496196 0.074201815 -0.294803 0.010619417 0.21637458 -0.11360279 -0.06511867 -0.09155607 0.26232982 0.21906951
\x1e	-0.12043952 -0.09450498 0.06122604 0.41543335 0.25703615 0.06666757 -0.28953776 -0.1318475 0.21467236 -0.10674997 0.33068204 0.08360556 0.09011623 -0.30781567 0.25030404 0.15787297 -0.08312346 0.075235575 -0.39698038 0.07097322 0.46776617 0.1988642 0.038421214 0.13601883 -0.24079278 0.053205043 0.14172938 0.3569386 -0.20833036 -0.030761583 -0.088347584 -0.31165922 0.09740928 -0.19198227 0.27177128 -0.10670873 -0.12744482 0.38324827 -0.32201898 -0.1507103 -0.04792112 0.011330932 -0.08071655 0.011902429 -0.17529467 0.1419229 0.0052567124 -0.34619805 0.09843694 0.32700068 0.11548214 -0.30670106 0.08529186 -0.19444153 -0.24314871 -0.064857244 -0.010615893 -0.00066153705 -0.20846108 -0.010494202 -0.05040887 -0.07082815 0.32243115 0.20588888 0.18369044 0.22139722 -0.07394993 0.0018551573 0.14593834 -0.25487483 0.16480468 0.23758864 0.24177556 -0.31785178 0.20296916 -0.12111516 -0.4817629 0.059196677 0.20692568 0.02636844 0.16998595 0.123211116 0.23489845 0.26083976 0.19196042 0.088258065 -0.22582084 0.12936747 -0.17776228 0.26283747 0.27248877 0.21970305 0.14476955 -0.38811174 0.016870588 -0.18507206 0.24112824 -0.24145275 0.026561685 0.18644653
\x1f	-0.3364389 0.31072068 -0.055865854 -0.044326335 -0.06518909 0.030238733 0.067083016 -0.39324036 -0.06925443 0.27004498 -0.008836657 0.083672814 -0.028545648 -0.10431267 -0.1224128 0.046678722 0.16680282 -0.39934373 -0.13309914 -0.29169908 -0.05074413 -0.3318025 -0.20809054 -0.09366989 -0.1068195 -0.10593944 -0.13245128 0.40377316 0.050751433 -0.027898394 -0.09196068 -0.13586138 0.12941697 0.05822219 -0.17468783 -0.33636618 0.24891913 0.4938088 -0.041917324 -0.15178224 -0.057250395 0.08179855 0.34822932 -0.23581405 -0.057848856 0.019586027 0.24623807 0.080132894 -0.13952473 0.21479383 0.086880654 0.012786493 0.2588517 -0.07990959 -0.23101151 0.11289598 0.096896656 0.012201313 0.13427797 0.017858997 0.2917884 0.1183545 0.04552631 0.19281487 0.33486366 0.28555703 0.050973326 -0.18367594 -0.15389863 0.08159532 0.29829895 -0.055213764 -0.1101713 0.31353408 0.17916255 0.005698785 -0.15578917 -0.07368973 0.09489618 0.026713923 -0.40707672 -0.26575232 0.09612788 0.030449247 0.3455231 -0.07963139 -0.14772187 -0.21549152 0.039349116 -0.40976125 -0.4324796 0.24335515 -0.095356695 0.07916801 -0.17435777 -0.24852395 0.2737566 -0.06343476 -0.205402 0.1311683
 	0.08790567 0.2221407 -0.5319656 0.2790782 -0.4818154 0.074521534 -0.13761108 -0.3382445 -0.011878448 0.4107384 -0.46296346 -0.37705457 -0.35856578 -0.05304292 0.59233534 0.42125577 0.06221263 -0.3367549 -0.26215166 -0.6085771 0.29526982 -0.5055683 0.18399382 -0.23380478 0.9824603 -0.33914644 0.61077225 -0.1599976 -0.19681673 0.62314284 0.40126872 0.35116947 0.6653203 0.6692625 -0.98315597 -0.22949973 -0.010036205 0.12220053 0.120172575 -0.273687 0.18820618 -0.052344285 -0.37708023 0.26884568 -0.4112739 0.40810964 -0.09180765 -0.11165291 0.15911666 0.57546383 -0.570756 0.8663832 -0.5583644 -0.0727554 0.44301635 0.1857702 0.11223205 0.4148878 -0.07172129 -0.024650238 0.31542134 0.076887466 0.89029753 -0.093330845 -0.24765201 0.26124904 -0.22610627 -0.07207763 0.015609711 -0.16438553 0.44061399 0.388606 0.21879555 0.37551033 0.44750044 0.331317 0.46395618 -0.003545342 0.5382682 -0.013392534 -0.7377359 0.1721795 -0.15454581 -0.66370314 0.26344684 -0.021168485 -0.35870516 0.07460707 -0.65420806 0.38550285 -0.2745894 0.49277955 -0.03776694 0.47878593 -0.05081837 -0.012272991 -0.14197102 -0.021829259 -0.5423122 0.117057316
!	0.37488556 -0.3734578 0.7641041 -0.08901776 0.06603747 -0.12729335 0.31708443 -0.003930456 -0.12035963 -0.42971766 0.091652334 -0.04551485 -0.08783895 0.3561361 -0.21638122 -0.258368 0.28837723 -0.13516447 0.3272844 -0.368082 -0.6997658 0.13071159 0.01991076 0.07425403 0.049789757 0.34442556 -0.32679802 0.47444713 0.048126433 -0.3600741 -0.23736359 0.04034266 0.04339712 0.19569018 0.21023473 -0.14264578 -0.1729585 -0.1191263 0.39837566 -0.6866441 0.48377016 0.22261095 -0.08281928 0.6819902 0.11905534 0.14262244 -0.01636844 -0.104264095 -0.47602755 -0.07457946 0.28895992 -0.25894636 0.4964977 -0.08113778 0.28939348 0.3273989 -0.3558248 0.10656678 -0.36993748 0.42474467 0.1756236 -0.21253343 0.37732905 0.22039133 0.25569788 0.09414877 0.33484268 -0.3368823 0.04061763 0.06695837 0.036772773 -0.23240817 -0.44645554 0.1381794 0.3499661 0.35396513 -0.010337882 -0.3875344 0.16852085 -0.17883411 -0.086295456 0.3909998 0.037946142 -0.105448335 0.63061404 0.30748135 0.27852705 0.59435403 -0.1174774 -0.26529703 -0.24984466 -0.1612123 0.43464345 -0.24054575 -0.12876317 0.35346007 -0.26644254 -0.25775197 -0.88620627 0.46836278
"	-0.0033442266 -0.5485248 -0.7264396 -0.28345034 0.12732998 -0.24275294 0.6260172 0.19145836 0.08207187 0.03855809 -0.38278866 0.4599011 0.19650541 -0.4367727 -0.20937973 0.4262398 0.20983979 0.06522698 -0.04403846 0.32105735 -0.036212858 -0.40850252 0.027586877 -0.3582997 -0.27719992 -0.14223428 -0.31130946 0.50847656 0.47770977 0.0997419 -0.46072218 0.48438764 0.17642093 0.7982814 -0.25409073 0.2947203 -0.04102005 0.19318897 -0.14182192 -0.39896804 -0.12584665 -0.1426459 -0.6312749 -0.14941245 0.7421294 -0.13925844 -0.4425035 0.2560104 -0.16994286 0.27850884 -0.024392467 -0.1148199 0.16795926 0.2170887 0.09010397 -0.44006038 -0.28929994 0.100326575 0.3557625 0.11615124 0.10788106 -0.05501577 -0.21762708 0.036641166 0.55135006 0.11888029 0.20375332 0.35505706 -0.16562074 -0.25858778 -1.1847012 0.12045463 -0.07993875 -0.34806603 -0.115170814 -0.42621726 -0.70405483 0.02300341 0.23132332 -0.20970838 0.2840266 -0.050622277 0.615247 -0.19456902 -0.020634465 -0.41086134 0.48827958 -1.287338 0.14265975 -0.17682841 -0.2623321 1.1348853 0.060802676 -0.26338384 0.19958383 -0.07747243 0.094960846 -0.03874276 -0.43598115 -0.62471575
#	-0.28392583 -0.19880193 0.090895936 -0.018617786 0.38993728 -0.016171683 -0.026398681 -0.00874342 -0.3968263 -0.13524115 -0.30212605 0.16488335 0.103248335 -0.24418384 0.42397225 0.21527097 -0.050805725 0.40697008 0.41438222 -0.53221846 -0.48607892 -0.0820104 0.7250105 0.09494792 0.4719337 0.5388519 0.1541319 0.049982026 -0.07230904 -0.018648174 -0.052316755 -0.19633165 -0.08726576 -0.42466062 0.19592339 -0.15728419 -0.24308433 0.3616454 0.41347405 0.24225265 0.081993856 -0.2481027 -0.105330266 0.37049478 0.46841562 -0.19624975 -0.2473185 -0.29177794 -0.13295965 0.4436583 -0.032588035 0.34660295 0.08377063 -0.26595604 -0.32900456 0.04493813 0.19267441 0.069641046 -0.08223668 0.33207652 -0.044243272 -0.27181646 -0.082144424 0.3879319 -0.36191684 -0.048654303 0.18081659 0.11094619 -0.07255631 -0.029077262 -0.33764037 -0.21036014 0.48870432 0.29957625 -0.27359143 -0.08016906 -0.49606532 -0.09125925 0.13233481 0.20950867 0.103671774 -0.19274126 -0.17332391 -0.1937405 -0.052350715 0.15989155 -0.1457102 0.33967656 0.1508064 0.35741326 0.02138722 0.14102376 0.05954317 -0.18763632 0.17028418 -0.0855204 -0.10349556 0.12444131 0.17331122 0.24203709
$	-0.25864458 0.29377967 -0.75586945 0.1944225 0.4893623 0.67239094 -0.26176968 -0.7170102 -0.06359568 -0.024071127 0.34427214 0.65594363 -0.6138544 0.38682702 -0.034997806 0.39019245 0.4092832 0.2327336 -0.10058695 0.5643761 0.09245793 0.43634024 0.45137334 -0.020452097 0.16283655 -0.5807874 0.35538515 0.18308295 0.23554455 0.1443252 0.11750163 -0.28664947 0.019813191 -0.069414675 -0.22964227 0.41375232 -0.025911488 0.27771932 0.12113333 -0.09559828 0.10833917 0.22734869 -0.55770606 -0.108329825 0.42387164 -0.6169901 -0.22082211 -0.48181677 0.21239299 0.15321776 -0.27695492 -0.76975995 -0.07278056 0.79774976 0.0026191175 -0.17276418 0.05215679 -0.7553836 -0.098035686 0.3085413 0.12881237 -0.07159051 -0.4307357 0.13249157 0.4632742 -0.24383421 0.22663158 -0.30035794 0.1523225 0.5795219 -0.20255023 0.0455105 0.026134126 0.020002443 -0.057178535 0.38397688 0.35375226 0.057873372 -0.51551986 -0.5701625 -0.76842564 0.2971118 -0.5811106 0.47325984 0.43447778 0.17674367 0.5447582 -0.0032491833 0.15934555 -0.67904985 -0.8214903 -0.24121842 0.08816943 -0.5860263 -0.14413646 0.12401694 0.4986963 -0.5537635 -0.13016328 -0.48068428
%	-0.28481686 -0.06807082 0.58396196 0.37519896 0.022396907 -0.14153776 -0.020570308 -0.4528399 0.13377088 -0.21091062 0.20791441 0.38570517 -0.016362563 0.6969393 -0.32112476 0.45286074 -0.30142045 -0.12624249 -0.05659391 0.1309804 0.10160984 0.51664865 -0.16240361 0.22843304 0.6075702 -0.09429189 0.32025057 0.0644056 0.17894799 -0.40385237 0.06338659 -0.30825636 0.14758942 0.23878136 -0.03391332 -0.018964782 -0.16084562 0.020746596 -0.3956075 0.3756609 -0.6239275 0.0014167726 -0.45922422 -0.14385086 -0.14472654 -0.25269777 0.14138897 -0.14260833 -0.06993075 -0.64061177 -0.1123334 -0.088021666 -0.7471068 0.044836164 -0.2000377 0.12619999 -0.12630618 -0.2490023 0.29034197 0.3001609 -0.44212914 0.39614522 -0.21911608 -0.46474844 0.2395402 0.01198421 0.16886285 -0.39135194 0.38373464 0.13705373 -0.11770755 -0.11591549 0.27847037 -0.28637204 0.45201954 -0.07947747 -0.06219475 0.064577304 -0.55060685 0.059559476 -0.019764762 -0.0021055993 -0.43655074 0.25906405 -0.038884953 -0.02315715 -0.0047558695 -0.057600304 0.21868755 -0.050182737 -0.34668547 0.0050249547 -0.31551003 -0.27464 0.03360135 -0.13787425 -0.15276948 0.13773617 0.1753091 0.012651354
&	-0.17496657 -0.14706895 -0.049383886 0.19293123 -0.5037286 -0.5929048 0.13081294 -0.0722177 -0.10860894 -0.49685326 0.44838345 0.19987321 0.0035061934 0.43644044 0.21383005 -0.25261343 0.13790931 -0.09407653 -0.20473552 -0.6207799 -0.585286 -0.31886068 -0.06468041 0.54095894 -0.16495618 -0.3629741 -0.18344997 0.16404875 -0.4444834 -0.50020164 -0.0918897 0.032262236 -0.4023583 0.26387313 0.0484754 -0.20440322 -1.008274 0.36076298 0.33609477 -0.34130433 0.029346332 -0.31517032 -0.28839606 0.42162263 -0.2160034 0.618575 -0.2990926 0.3377826 0.08786373 0.07220931 -0.48776096 0.02633378 -0.03180971 -0.03968188 -0.72302336 0.25198516 0.21353719 0.16167521 -0.6696421 0.106339626 0.23029253 -0.3943283 0.23068914 0.3941725 -0.026045203 -0.45494318 -0.3904759 -0.4304964 0.09221594 -0.2244629 0.40027726 0.002421625 -0.72013605 -0.07226924 -0.30870032 0.26307118 0.45154965 -0.44466755 0.27435294 0.47086298 -0.05792326 -0.012602076 0.35647035 0.1899641 -0.0055375216 0.6375713 0.35741827 0.035621777 -0.08604239 -0.38884285 -0.58806264 -0.09410408 -0.103946425 0.4068768 -0.3633377 0.30265018 -0.06883254 0.32373047 0.5160674 0.266411
'	0.025133954 -0.24562801 -0.25167987 0.015034825 -0.14976205 0.34766352 0.029252771 -0.15881488 0.26152724 -0.13667749 -0.10618607 0.12207855 -0.564751 -0.005167052 -0.30554232 0.48019373 0.21574287 -0.016199209 0.4415675 0.24779692 0.7046092 -0.32855886 -0.38167202 -0.68719256 -0.37269124 0.017682973 -0.12474566 -0.020938482 0.22690804 0.28675538 0.36726648 0.23064154 0.7285509 -0.027771518 0.15141203 0.3654548 0.008293897 0.07503094 -0.32205135 -0.1832662 -0.33112508 0.20726192 -0.4007695 -0.121282175 0.016184166 -0.09879644 0.31779027 0.2601118 0.23211731 0.37632263 0.6187277 0.6195109 0.029819071 -0.104925066 0.5649294 0.31018108 -0.36523142 -0.5538775 -0.043797433 0.6187731 0.6220187 -0.23113757 0.757087 0.12883665 0.032880813 0.2005397 0.006717354 -0.62278545 0.5647272 -0.081185244 0.17167336 0.4692775 -0.3568148 0.29650465 0.62387204 -0.07111202 -0.110715576 -0.18556157 -0.2165025 -0.28040147 -0.036844075 0.4456904 -0.23404601 0.39298114 0.08985369 0.5909316 -0.28980786 0.28534314 0.18465072 0.5037549 -0.12834048 0.19411604 -0.015249763 -0.18908435 0.31994978 -0.602589 0.2214512 0.043271665 0.24861847 0.4132579
(	-0.11027634 0.61484426 0.35281953 -0.060331613 -0.041919045 0.044264473 0.717946 0.54075515 -0.14877498 0.55151415 0.41916913 0.10359475 0.020600706 -0.7677095 -0.3909143 -0.19294801 -0.19588965 -0.23280871 0.15751405 -0.117955014 -0.078601584 0.13212545 0.14484811 -0.35760972 0.08536206 -0.3174947 0.39084044 -0.29529655 -0.066575326 0.10333796 0.19907063 0.4627315 -0.31561488 -0.19749394 0.15813841 0.10532032 -0.39708358 0.2919694 0.05526038 -0.2294457 0.24864128 -0.071331665 0.27910402 0.4243399 0.47256362 0.06465231 -0.3963694 0.60589033 0.61246884 -0.48678148 -0.5291194 0.13283265 -0.36320612 -0.12806478 -0.027838513 0.22302425 0.0625483 0.2909069 -0.057923015 0.30690542 0.5784032 -0.37585762 0.4749561 0.44700783 -0.6901496 0.17585132 -0.34461167 0.25305656 -0.19638596 0.20874688 -0.070310816 0.018245056 0.25644362 -0.58534396 0.35486048 0.52949727 0.36885956 -0.3315823 -0.48617885 0.049598724 0.12665042 0.43116748 -1.1604159 -0.205589 0.44131118 0.14299497 -0.26795074 0.030389199 0.5355346 0.14072329 -0.096985444 0.3482084 -0.8979331 -0.02829232 0.02702972 -0.19004656 -0.6827221 0.18747124 0.0921167 -0.2911087
)	-0.31936157 0.26019353 0.28699708 -0.48551843 0.108911976 0.35603988 0.85547376 0.43218952 0.59164333 0.71770304 0.3316648 0.19777642 0.56496537 -0.34720057 -0.23216668 -0.74445796 -0.39655244 0.077784196 -0.4356102 0.5793987 0.20607264 0.058511864 -0.19408974 0.23180479 0.02382183 0.28332013 0.1979939 0.25407392 -0.4672309 -0.2777862 0.46950993 0.0035476834 -0.2503416 -0.060747392 0.11294559 0.14310098 -0.25340673 -0.55511504 0.47296196 0.042879708 -0.070021555 -0.35333034 0.01341708 0.43407628 0.2532757 -0.49373204 0.27369484 -0.28727308 0.2639454 -0.2918352 0.5444133 -0.121119305 0.31271905 0.071405366 -0.42920244 -0.18824407 0.022971757 0.44820404 0.014780737 0.34344512 -0.07954152 0.055319965 0.47118714 0.079117045 0.05956977 0.5370138 -0.24505702 -0.17475912 -0.4850095 0.7306081 0.12450246 0.08450003 0.20921865 0.007914625 -0.3106337 0.28335905 -0.12019815 -0.28317854 0.053856924 -0.10803751 -0.4579236 0.29746932 -0.2465452 -0.15578444 -0.13557318 0.51479363 -0.3676498 -0.4487597 0.29626396 0.09974045 0.34846896 -0.13874839 -0.27544442 -0.11207346 0.3270383 -0.22545092 0.15722638 0.09549525 0.56475616 0.15970078
*	0.30193508 0.64280075 0.3250358 0.1201043 -0.24303058 0.49248293 0.02917727 -0.7006513 -0.382973 0.12719648 0.28276783 -0.22974965 0.08126082 -0.04575169 0.19166507 -0.2023235 -0.39093876 -0.19496754 -0.16917738 -0.30327782 -0.059972674 0.23058957 0.46805638 -0.51106954 -0.3893398 0.041679706 0.08368951 -0.38429153 -0.04804772 0.15779926 0.078393996 0.028018339 0.23239802 -0.18200496 -0.7374666 -0.4529044 0.07875347 0.29461455 0.19727802 0.15569623 -0.15939468 -0.35784906 -0.34941918 0.14486957 0.22155733 0.10046074 0.01285623 -0.07862356 0.103782296 0.29210708 -0.38598162 0.23472393 0.27452204 0.18015024 -0.16357379 0.39745218 0.0807718 0.047795776 -0.08951262 0.17957932 0.103772044 -0.29395622 -0.45345962 0.057531837 0.029299103 0.2932043 -0.06653612 -0.08248484 -0.39881152 0.008620426 0.0900357 0.52909935 -0.021192836 -0.07194058 -0.13899203 0.25163695 0.11178469 -0.027169295 -0.23414461 0.21619764 -0.15600315 -0.1914489 0.06602579 0.0731342 0.17204191 -0.093788445 -0.3983716 0.46452588 -0.23361918 -0.35020775 -0.1734492 -0.07543908 0.028648395 0.32205614 0.15629537 0.30941734 -0.3480961 -0.42287233 -0.294199 -0.17686741
+	0.2874961 0.56109387 -0.1638398 0.29424614 0.40095982 -0.21544184 -0.31707904 0.032758914 -0.4451796 0.17260882 0.21073394 -0.01832151 -0.45523778 -0.3878913 0.19704062 -0.08854826 -0.27717957 -0.14531381 -0.08773407 -0.26012003 0.1985873 0.2300491 0.24590692 -0.06287752 -0.019436754 -0.42757884 0.5988362 -0.38372508 -0.019252434 -0.12225582 -0.21340956 0.31528032 0.29060954 0.23864566 -0.47416365 -0.026498593 -0.3200461 0.33354297 0.090478234 0.23940426 0.16947447 -0.38481703 0.2417317 -0.14523567 -0.0077431127 0.09072103 -0.2423211 -0.49587634 0.41842633 -0.19915575 0.14773025 0.026474655 -0.011883967 -0.12084619 -0.2654606 0.5540299 -0.16801289 0.13784663 0.023183718 0.1716173 -0.43947792 -0.6387357 0.0027705953 -0.068372995 -0.31946355 0.24069321 0.08133641 0.1871782 -0.19465494 0.4567189 -0.11377148 0.24901435 0.2503366 -0.60624325 0.36397934 0.1393126 0.5679102 -0.14548737 -0.07184705 0.3127103 -0.0927958 -0.14464179 -0.5362176 0.4989553 0.15650573 -0.1976817 -0.37073785 0.0827969 -0.10737898 -0.7732663 -0.147594 -0.12101177 -0.25878564 0.32304943 0.116498426 0.57747287 -0.35049027 -0.33081132 -0.17869002 -0.35155153
,	-0.2269609 0.23706856 -0.413634 -0.54544216 0.61732006 0.014003507 0.1833255 -0.21543114 0.15484124 -0.02197744 0.05212118 0.687806 0.3874408 0.14863428 -0.0460044 0.05340054 0.20364438 0.17763585 0.2302589 0.8046293 -0.08775281 -0.39209288 0.0038723946 -0.72132814 0.14560804 0.11767216 -0.3089019 0.44389844 0.10590632 -0.07344844 0.27096212 0.29496568 -0.29133406 0.2558703 0.34074003 0.05177038 -0.5509092 0.5284824 -0.0051183254 0.119392715 0.188413 0.30398256 -0.102983 0.49181274 0.5632875 -0.30030966 0.01465396 -0.09964438 -0.16706845 -0.40242535 0.16011475 -0.31382555 -0.13404445 0.2678509 0.090753436 -0.26125273 -0.035031263 0.11867295 -0.08571643 -0.2663748 0.0975688 0.40909672 0.4892339 0.37943122 0.04864262 -0.13444987 0.25136748 0.19266595 0.70359117 0.4628104 -0.7332066 0.45665097 0.23467827 -0.0005965382 0.14450741 0.1319781 0.26144645 -0.3970418 0.12994039 -0.65714467 0.15688948 -0.07451336 -0.64615023 -0.5335643 -0.11185627 0.17334315 0.7634144 0.17872575 0.2269941 0.16065046 -0.41609755 -0.08163476 -0.08203465 -0.37699383 0.1293355 0.263442 -0.15795445 0.0804058 -0.398255 0.37708426
-	0.3345569 -0.08399402 0.3671466 -0.32989475 -0.22065179 0.11535974 0.35363778 0.10226098 -0.3729173 0.58140355 -0.123805456 -0.58551866 0.2769633 -0.5389804 -0.7163559 0.054757785 -0.08870047 0.029348588 -0.6577657 0.46045476 0.22375834 -0.24916139 0.107495174 -0.33342847 -0.15844172 0.062198848 0.0004733801 0.4657454 0.215545 0.46984422 0.22403166 0.6247757 0.38116583 -0.08424236 0.11834679 0.51471394 -0.06788615 -0.23549387 -0.124866664 -0.24796471 -0.21548586 0.13291818 0.2453947 -0.29389882 -0.108356714 -0.41669083 0.14041302 -0.2814785 -0.31656408 0.28449324 0.19636105 -0.28189093 0.45872134 0.14791349 0.29347277 -0.22066362 0.33581182 -0.22553496 0.5624573 0.2198407 -0.55988103 -0.20582941 0.309933 0.8074521 -0.06499243 -0.3953089 -0.10250824 -0.08764961 0.3220233 0.28314164 -0.19120692 -0.14754696 -0.5606116 0.09996964 0.22539343 0.21484894 -0.4677093 0.4847569 0.54876214 0.08447242 0.50626385 0.7187144 -0.57648814 0.05313137 -0.11689324 -0.32492778 -0.35504544 0.14881675 -0.3281337 -0.019264862 0.42694965 -0.2274146 -0.217769 -0.08446665 -0.27116245 -0.057722647 0.70833594 -0.9024854 0.3061288 -0.086066276
.	-0.2896161 -0.34985876 -0.1587688 -0.67028916 -0.050482936 0.9838737 0.68096054 -0.38713872 -0.36790574 -0.26086554 -0.33047926 0.0002938509 -0.33716202 0.021101534 0.15958108 -0.02164422 0.0975387 0.08994974 0.3123833 0.3648583 -1.2258103 0.73563385 0.1793545 -0.19892988 0.1270346 -0.13010764 0.7084523 -0.40682107 0.46748036 0.22076416 0.16586111 -0.612154 0.068986915 0.19727653 0.39218557 0.08742043 -0.1725405 -0.062119216 -0.46701905 0.3081655 -0.07210742 -0.22853976 0.6723016 0.48401314 -0.15399423 0.15361032 0.27441177 0.17267911 0.17367557 -0.34727252 0.07069567 -0.32619524 -0.027742967 -0.4367614 0.24180348 0.04509309 0.34085062 -0.02769164 0.24292162 -0.37149197 0.14798191 -0.55814207 -0.009286061 0.13462342 0.32924032 -0.14664464 -0.07603292 0.39860475 0.24545583 -0.04382173 -0.1153166 -0.11613282 -0.115753196 -0.1701729 0.41006798 0.20196213 0.2867064 -0.30514735 -0.16628784 0.098281376 0.0066614226 0.45802382 0.24538167 0.11081972 -0.42375064 0.11932126 0.46929285 0.07531134 0.5518024 0.30205643 0.10235376 -0.19925559 -0.42240942 -0.321774 -0.14088497 -0.029395219 -0.4795264 0.10576348 0.1706229 -0.17172992
/	0.054339916 -0.52607816 -0.33676207 -0.7672242 0.42261901 -0.1833536 0.17019741 -0.49135616 -0.25741464 0.4212748 0.3644289 -0.86730033 -0.45180398 -0.70413613 -0.079758584 -0.071841866 0.027349636 0.2145951 -0.1381287 0.46171933 0.2385829 -0.928578 -0.091695786 0.3971839 0.26751542 0.0030828305 0.47259536 -0.7442317 0.08818628 -0.33791918 0.25508872 0.26494855 0.6535859 -0.036991097 -0.2683848 0.025983922 -0.4374776 -0.3216011 0.049011663 -0.5604243 -0.2762777 -0.24113299 0.48652598 0.594384 -0.22617833 -0.42304444 0.27843958 -0.49898195 -0.4384916 -0.25627035 0.46489376 0.28342882 -0.46783838 0.6220721 -0.1002881 0.18952644 -0.049540244 0.3947033 -0.400688 0.15789855 0.33194458 0.21454346 0.79990745 0.009252608 -0.3190925 0.08772175 0.25296727 0.0880719 -0.32254142 0.035063796 0.3913511 0.13360111 -0.31918177 -0.6119045 0.33675897 0.3483062 0.138107 -0.06219369 0.15948592 0.15337369 -0.18830606 0.070705414 0.19418167 0.2642282 -0.08226199 -0.3973221 -0.39498585 0.09402022 -0.2545534 -0.5147004 -0.035400562 0.17237025 -0.198486 0.3661873 -0.13052237 0.41877788 0.06915568 -0.59599406 0.17285544 0.27078846
0	-0.16164927 0.056500956 0.30465797 0.27187264 0.12213245 -0.24068128 -0.48176572 -0.11883056 -0.2092349 0.524358 0.4440046 -0.38169876 -0.029952183 0.23158413 -0.04644443 -0.47841647 0.31633368 -0.009173859 0.009224676 0.6522094 -0.22722526 -0.2824371 -0.062497705 -0.17112684 0.42049527 0.051203698 -0.39814174 0.20197019 -0.25865495 -0.035360403 0.33326262 0.2954794 0.3233081 -0.25988573 0.07203281 0.74947345 -0.2059281 0.028884035 0.33036777 -0.5785992 0.24682924 0.051015288 0.37749192 0.3340963 0.22438988 -0.66309977 -0.078577474 -0.07893363 0.5641843 -0.10268772 -0.5151352 -0.15936802 -0.40987796 0.39988536 -0.14481138 -0.062178962 0.3980909 -0.2579337 -0.2563473 -0.15250403 0.37821344 -0.18013906 0.53196573 0.15487121 0.40902767 0.26205304 0.12787537 -0.33011305 0.092567876 0.20397335 -0.58565146 0.08773494 -0.4272662 -0.3255667 0.2780894 0.49103794 0.18692052 0.29494685 0.36357653 0.3996887 0.39625224 0.48266304 -0.37793303 0.019964525 0.3992724 -0.14399508 -0.06377797 0.26516488 -0.642717 -0.099222 0.23378022 -0.5872055 -0.5739687 -0.030944202 -0.31949452 0.16098855 0.13460761 -0.29089302 0.9573531 0.07673685
1	-0.3473688 0.039522484 -0.015806694 0.68647945 1.0100043 -0.17403589 -0.32320127 0.20789592 0.10175684 0.3833958 0.14534515 -0.30738416 0.10419186 -0.26939613 0.13922238 -0.32335103 0.101030126 0.56499064 0.2518958 -0.03672406 0.12892257 -0.33778322 0.14186253 0.32605767 -0.040132657 -0.14010431 -0.018911483 0.46033078 0.84111696 0.1752548 0.03433546 0.22305448 0.36467445 -0.58480096 -0.19952483 -0.035438012 0.2040095 0.014529986 -0.026508104 0.40742987 0.63303137 -0.0718606 -0.12526809 -0.21918637 -0.2522412 -0.37485042 -0.041712295 -0.5569528 -0.26953268 -0.13380408 0.0603245 0.59552705 -0.44596618 0.7100999 0.13152632 -0.124548905 -0.4210223 0.081712574 -0.42087713 -0.38579208 0.42751804 -0.3755072 0.51098406 0.23459418 -0.26394334 -0.5961599 0.18323606 -0.0109013915 -0.47589797 0.31190914 -0.075781025 -0.02929333 -0.3805694 -0.39747816 0.73750794 0.458867 0.5403138 0.31241417 0.33872408 0.31888872 0.64185464 0.19738369 0.031646788 0.14571822 0.47395378 0.054781295 -0.14309797 -0.093695104 -0.047337495 0.17848563 0.47258073 0.18958482 -0.308697 0.06748599 -0.116445 -0.054840542 0.88530636 -0.09534745 0.55120087 -0.06458653
2	-0.93908966 0.6577349 0.16629282 0.47388303 -0.07241175 0.3852751 -0.052036054 -0.21817756 0.4270311 0.19120106 -0.33377945 -0.16990304 0.18725668 -0.5782754 0.31991225 0.3069415 -0.446096 0.0958675 -0.095703356 1.0271841 -0.30757582 0.04336056 0.079734966 -0.015003182 0.22470024 -0.79864705 0.25060058 -0.058691792 0.34629154 0.14326291 0.3253975 -0.25845242 0.029869646 -0.0001076404 -0.45846617 0.4525584 -0.15606205 -0.3068784 0.19447355 -0.7758039 -0.16148111 -0.21883354 -0.058164075 0.025982872 0.15204886 -0.27804798 -0.4746616 0.16821566 0.41585356 0.16848764 -0.08663058 -0.2773119 0.048983194 -0.07742411 -0.19314574 -0.18452446 0.46203256 0.3162224 0.19683188 -0.25101307 0.6017161 0.46444184 0.16946001 -0.5986097 0.29783326 -0.18836597 0.23602928 0.29850608 0.1581807 0.059480324 -0.34586897 -0.42988217 0.39454788 -0.33258504 0.18018624 -0.45994896 -0.64680153 -0.1637301 -0.5598948 0.09308636 0.40466958 0.0007746592 -0.61493677 0.4333689 0.14877722 0.10454607 0.18836606 0.3716057 -0.14415488 -0.1418248 -0.37366048 -0.16980292 -0.46189067 -0.34952655 0.17929828 0.4905709 0.47799766 -0.2649663 -0.3621278 -0.16094574
3	-0.9561572 0.08218845 -0.010176733 -0.04048729 0.25686362 -0.21731663 0.13298884 0.32222807 0.2010575 0.16352923 -0.19694619 -0.2790638 -0.20494874 -0.018171363 0.17994264 -0.11261214 -0.07900163 -0.025584247 -0.16901061 -0.444096 -0.08808834 -0.054186746 -0.10171647 0.5967362 0.6742958 0.14995259 0.47015548 -0.2621001 -0.0947389 -0.18716381 -0.30358002 0.2844419 0.5197253 -0.1642024 -0.63500994 -0.09939718 -0.29660374 0.3045349 0.05354117 0.26812413 -0.61659753 -0.58148813 0.13661687 -0.13257638 -0.3968527 0.051754624 -0.3151594 -0.19912218 -0.45272386 0.0554684 -0.30227605 0.02535212 -0.5077735 0.4809541 0.5226717 0.7459369 0.1065211 0.52501565 -0.40055454 -0.20546257 0.23618406 -0.35043806 0.269476 -0.32573438 0.35143867 -0.04132931 0.3601071 0.17938389 0.11937934 -0.5864376 -0.26150036 0.15829356 0.4562464 0.014266886 0.7420787 -0.15103528 0.3564048 -0.0015295297 -0.26379675 0.5621489 0.22086607 -0.12381618 -0.13170357 -0.19269231 0.39233285 0.20310146 -0.3914997 0.16411985 -0.569656 -0.11037996 -0.27817574 -0.37629032 -0.29379508 0.26104364 -0.45464665 0.18576263 -0.09944324 -0.019657344 -0.24812631 -0.21050073
4	-0.7691442 0.4395247 -0.23914543 0.068209335 0.9067334 -0.17189081 -0.11936834 -0.26634535 -0.13882403 -0.18763319 -0.37786898 0.6735821 -0.0039917603 -0.110387504 0.27799267 -0.10254149 -0.06345743 0.1847238 -0.061905645 0.047877554 -0.13621967 -0.21405163 0.46791527 0.9591181 -0.075140744 -0.11162274 -0.45893407 0.23544729 -0.011233993 -0.13254583 0.016578145 -0.097961515 0.20403108 0.048697565 0.008359723 -0.36742145 0.33277696 0.18322736 0.6849179 0.12649633 0.074660406 -0.16726314 0.67462534 0.26934153 -0.2725929 0.10687783 0.49253556 -0.09070236 0.13703991 0.3683258 0.24130356 -0.45192975 -0.32990474 0.6413675 0.27288216 0.853523 0.5586188 -0.47748736 0.3608757 -0.2868764 0.00844845 0.22759293 0.760849 0.019866168 0.2588992 0.20379364 -0.04594563 -0.40065956 0.10204271 -0.42188597 -0.37111834 0.22778827 0.08699079 0.38982034 0.13666213 0.2613596 0.21398965 0.0142389815 0.6552487 0.34533685 0.4056705 -0.35968208 -0.10699743 -0.2901878 -0.14048615 0.029954001 -0.059198186 0.54116 1.0319073 0.5112602 0.5113751 -0.5600882 -0.28362495 -0.14156486 0.5630952 0.2252174 0.042037368 -0.012737967 -0.2048451 0.5446379
5	-0.4268754 -0.24678314 0.19262064 -0.21691579 0.3307471 -0.0031808354 0.47620094 -0.114690214 0.5079999 0.7642688 0.58889914 0.215265 0.5381907 -0.4676294 -0.2787399 -1.0444814 -0.5941453 -0.38431108 -0.07807723 0.37574106 -0.3174726 0.044439726 0.046992525 0.51920176 0.69068706 0.27470547 0.03387412 0.08430974 0.03047648 0.19716363 0.56183606 0.31063837 0.27909428 -0.3987691 -0.32447428 0.020363733 0.12559196 -0.08419767 0.23985083 -0.19706792 -0.46520948 -0.2281274 -0.24770692 -0.0049540065 0.038015947 -0.19165903 0.063481376 -0.26722062 -0.24740608 0.28175324 0.0229238 0.37525466 -0.36498603 -0.30865353 0.37261462 -0.22313511 -0.21623844 0.12166607 -0.0030197427 0.09555122 0.65067375 -0.3554255 0.41981852 -0.009598017 0.020875491 0.28638148 -0.19517937 -0.2948196 -0.18305665 0.02712433 -0.07613745 0.30309695 0.2155337 -0.83600485 0.5745866 0.29419902 -0.421822 0.05503898 -0.033229806 0.230173 0.37109393 0.43347368 -0.016481588 0.37282765 -0.14155161 -0.011811703 -0.32692143 0.37165585 -0.17117524 -0.4031276 -0.31721094 -0.062684014 -0.67011404 -0.21631643 0.39449012 0.3343222 0.379511 -0.10452145 0.03584747 0.3136493
6	-0.13583767 0.17804185 -0.18095532 0.05957155 0.5790008 0.07329841 0.18342465 0.1412632 -0.20792504 0.37833822 0.43991044 0.033603244 0.03800624 -0.367813 -0.4529834 0.10768013 0.28341994 -0.11723094 0.11179712 -0.121976696 -0.20350373 -0.06456314 0.12760234 -0.7132341 0.14566785 -0.44065797 -0.19007027 -0.24323598 0.047501028 0.5458946 0.12954937 0.014196783 0.11756346 -0.20112337 -0.115251526 0.09008526 0.2648053 -0.24360098 0.5984925 -0.5076568 0.37214696 0.24198446 -0.23031378 -0.027621895 0.5648144 0.31058186 0.60432905 -0.20457767 -0.8074508 -0.16704483 0.11787706 0.36642748 0.04439205 0.33724257 -0.35131177 0.046166956 -0.45121348 -0.19054982 -0.6130055 -0.16376549 0.5887178 0.022120893 0.62092745 -0.1995425 -0.023138002 -0.22881359 0.08799616 -0.49139747 0.589842 0.4014157 -0.25206634 0.22761415 0.36318702 -0.006736718 0.4213866 0.021650746 -0.04765331 -0.47378612 -0.68550867 -0.12945768 -0.30940807 0.15624602 0.1766346 0.052796926 -0.45589912 0.3364193 0.20357619 0.6462743 0.058212608 0.19633159 -0.15138833 -0.37190405 -0.79138803 -0.11462377 -0.14898205 -0.07637495 -0.2213572 -0.09902832 0.08709973 0.11481751
7	-0.01703088 0.5213586 -0.08960147 0.46508878 0.40734512 -0.30952325 0.26086158 0.17455515 -0.80716455 0.67072797 0.33890185 0.3415057 0.09884608 -0.54485637 -0.41586387 0.01350233 0.36701632 0.6370367 0.18200037 -0.3771615 0.24565127 0.13685818 -0.14489405 -0.50678504 -0.268725 0.4914161 -0.0748342 -0.3931074 0.21410736 -0.32981357 0.46670172 0.4171427 0.7118289 0.09410227 -0.59357774 0.55182505 0.49180192 0.0637976 0.06911708 -0.019286793 0.33510256 -0.021494048 -0.32899123 0.6422014 0.14594828 -0.27486527 0.05768539 0.16187403 0.06543927 -0.11191859 -0.05260995 0.119616844 -0.44791302 -0.22352652 -0.24197336 -0.10913949 -0.46777648 -0.28624907 0.21454881 0.02453617 -0.23628362 -0.17080858 -0.036523297 0.13089168 0.36586815 0.09442713 -0.21119078 -0.034531273 -0.42675185 -0.13505022 -0.24500419 -0.08988351 0.009083064 -0.19689545 0.03201808 -0.1954847 -0.021095395 0.29197025 -0.13300435 0.25225753 0.085894115 0.702446 -0.8172936 0.7003931 0.019653955 0.31847492 -0.18657312 0.3853423 -0.061433323 0.075623125 0.0923029 -0.48195833 -0.278991 -0.7522135 -0.28839505 -0.3780858 0.032396562 -0.8503743 0.47997233 -0.60155845
8	-0.25328273 0.49146372 -0.463078 0.3222781 0.34496188 0.1463824 0.026703939 -0.05683683 -0.36776888 -0.25595984 0.13510367 -0.089477144 -0.79356444 0.2883311 -0.21049711 -0.52699757 -0.021019932 0.160431 -0.047473796 0.1500738 -0.6379387 -0.51118726 -0.36981738 -0.21676305 -0.10202031 -0.48059994 -0.43885094 -0.34459406 -0.029636607 -0.25131822 -0.18358234 -0.25800976 -0.038547143 -0.23326023 -0.018371105 0.35758418 -0.21922666 0.019356862 -0.3842371 0.12022823 -0.1327176 -1.1122311 0.58361113 0.50673234 -0.20323 -0.32662123 0.5442132 0.33112916 -0.054349788 -0.10243702 0.0008240342 0.1544128 -0.04720031 0.2515502 0.0042862594 0.37833858 -0.22129497 -0.12103599 -0.6057774 0.17608553 0.0032063988 0.2617321 0.3456595 0.41493565 0.44948047 -0.11315839 -0.49599317 -0.07865707 -0.203089 -0.1989238 -0.225279 -0.21039173 -0.2319684 -0.23178437 -0.19169144 -0.07632665 -0.3640693 0.16392626 0.9709503 0.42820036 0.10424055 0.5277235 -0.039820373 -0.29510796 0.12648082 0.3629694 0.43500867 0.25553703 0.37697563 -0.23697942 -0.49674565 -0.5931562 -0.49011332 -0.32751 0.29911107 0.59399724 -0.07143583 -0.05031098 0.35746738 0.6114625
9	-0.32954088 -0.22886252 -0.011672266 -0.052293986 0.28855124 0.23232214 -0.19386907 -0.011078015 0.17449068 0.5011046 0.3045597 -0.40696868 0.5383039 0.32653603 -0.3733527 -0.21725315 0.06569352 -0.15154567 -0.309074 0.2952232 0.12814446 -0.28170574 -0.36784303 0.3908237 0.7336687 0.30601564 -0.38136256 0.18572304 -0.19590905 -0.18817523 -0.11531716 -0.34996343 0.89505994 -0.20454061 -0.056467146 -0.38571993 -0.14936942 0.18685608 0.44021776 0.17353448 0.0245778 -0.42221928 0.12856828 -0.23347652 0.35757113 0.124653965 0.4915955 -0.09603393 0.16379866 -0.42845267 -0.77551997 0.46503764 0.28905684 -0.08455152 0.111721694 0.45039427 0.26257086 -0.406618 -0.3271861 0.4411857 0.04409907 -0.08943923 0.2923305 0.04914213 0.3350324 0.098300815 0.20648637 -0.313666 -0.14914778 0.49650425 -0.5995335 0.13669801 -0.3433792 -0.3140624 0.2852157 0.13208582 0.3352732 -0.17500058 0.34383315 0.36327523 0.68143475 -0.07517661 -0.15880178 -0.30936873 0.15585919 -0.037182845 -0.029173702 0.0011622794 0.017088145 -0.021685276 0.19016173 -0.12613896 -0.47108537 0.42276078 0.42916477 -0.17639932 -0.33298618 -0.30246782 0.04154265 0.3190523
:	-0.21875991 0.47204238 -0.34110162 -0.5341879 0.39603573 -0.52593654 -0.10041107 -0.56472963 -0.01981242 0.3755224 0.37142366 -0.3616064 -0.4342945 -0.32801878 0.3685121 -0.45265114 0.27683452 0.2662001 0.024608329 -0.0417933 0.6244071 -0.29559666 0.07769043 0.38577956 0.022196889 0.7015009 -0.28742778 -0.6244704 0.05042076 -0.24131031 -0.1609526 -0.08417776 0.33806744 0.08241616 -0.13104577 -0.57793045 0.30021492 -0.18905605 -0.34173074 -0.06059922 -0.65438414 -0.5678946 0.4904633 0.2808932 -0.3459306 0.2056597 -0.19418393 0.20225783 -0.3180092 0.03079477 -0.20524526 0.20249331 -0.115203425 -0.2791001 0.1299657 -0.023907758 0.5083319 -0.62683034 -0.65137 0.35331047 0.041132107 0.35410804 0.36810213 -0.09144461 0.25247747 0.39471233 0.17028335 0.3698042 0.07204859 -0.43105984 -0.43921173 0.53704923 0.0019217506 -0.03153461 0.09476797 -0.10016932 -0.2805848 -0.6710575 0.31440225 0.0033568814 0.464167 -0.15084074 -0.14339292 0.17848012 -0.32623398 -0.5992094 0.068812475 0.17014456 0.28881204 -0.03683919 -0.22828862 0.10841519 0.304294 -0.3669348 0.40132737 0.2267251 0.13008197 -0.07276597 -0.08421276 0.27091092
;	-0.02570878 0.07255676 -0.1895073 0.4943831 -0.070628524 -0.1528824 0.35598508 -0.32456613 0.008416388 0.31958354 -0.08955817 0.2957372 0.15551224 0.23318434 -0.049575694 0.6510743 -0.026610548 -0.31053147 -0.34024298 -0.033293802 -0.19866869 -0.13542673 -0.19506054 0.011916339 -0.25221547 0.53324986 0.11647793 -0.041251227 0.15750617 0.09271355 -0.0021149814 0.24797206 0.47635257 0.28187904 0.13274898 0.41880196 -0.111412376 -0.005538335 0.20064399 -0.026769385 -0.02635198 0.21005584 -0.32201833 0.1809974 -0.013389979 -0.030658305 0.2812414 -0.16431858 0.002504073 -0.2282103 -0.04647366 -0.18532193 0.25163788 -0.1697833 0.4970911 0.1408777 -0.054147568 -0.22532697 -0.009932205 -0.22427414 -0.22188076 -0.064456195 -0.5151428 -0.3538628 -0.3793893 -0.11699634 -0.38036066 -0.22788215 -0.06465952 -0.18999143 -0.038010508 0.341528 0.16657546 0.03350152 -0.12675427 -0.17907357 0.12923716 -0.18953437 -0.39912236 -0.060366027 0.060313452 0.057339758 -0.97360176 0.15507463 0.44376624 -0.25294137 0.24046676 0.026694529 -0.16787481 -0.24802859 0.028694406 -0.20244294 0.35469925 -0.31692475 -0.15033951 -0.044428706 -0.15238172 0.15401372 -0.09261548 -0.29944783
<	0.0017939061 0.22965947 -0.1755534 -0.025350105 0.4084866 -0.37100717 -0.033454396 0.38108307 0.03808564 0.45872623 -0.344448 0.24329174 0.26517066 -0.021042818 0.21213223 -0.026833316 -0.16460253 0.0957517 0.10908289 0.19901131 0.24431008 0.20925231 0.134113 -0.2298941 0.09917343 -0.10702855 -0.29087985 -0.10211353 0.20465106 0.27720484 0.108068734 0.33399117 0.24621753 0.25324923 0.2740022 0.053663418 0.2720054 -0.10225939 -0.18720387 -0.2581463 -0.19702955 -0.36383468 -0.012558453 -0.38217038 0.26142144 0.165501 0.28074697 -0.09067342 0.29586264 -0.028935984 0.17610395 -0.475554 0.026550308 0.084575355 0.15001498 -0.27666932 -0.1140409 -0.026183307 0.36571705 -0.3735113 0.28456587 -0.09375282 0.06299545 0.10330101 -0.13419788 0.043455347 -0.14480218 -0.040251553 0.13675089 -0.13055947 -0.08123317 0.073079914 0.053923503 -0.18647245 -0.18368399 -0.0033631623 -0.05087834 -0.0319783 -0.27644745 -0.43093556 0.2206262 0.1928339 0.07779224 -0.04921551 -0.07186591 0.12920666 0.19608 0.34474903 0.016165333 0.03824158 0.22697635 0.054490536 0.028596535 -0.060646564 0.18901564 -0.02663827 0.013916552 0.20022613 0.30176607 0.11435852
=	0.07118506 0.18592028 -0.3950621 0.08514837 0.46275228 -0.090086296 -0.0100912275 -0.54820085 -0.24307126 0.17635639 -0.009138461 0.044151492 0.018838245 -0.021306962 -0.4853045 -0.20993401 -0.19730268 -0.021476641 -0.17568123 -0.07291874 -0.2593881 0.21054822 0.27742112 0.10992952 0.3129607 0.0956589 0.062427998 -0.064035416 0.2811466 0.10521769 0.061257467 0.24991602 -0.35696122 0.33462173 0.17540881 -0.14072433 0.10306469 0.067744836 -0.30214918 -0.4087463 0.10082879 -0.6927146 0.02947715 0.3730107 -0.017794946 0.30963013 -0.100537285 0.014903717 0.06293039 0.1108994 0.21945134 0.117403746 0.06463654 0.17582032 -0.14514408 0.29140052 -0.1028513 -0.18730566 -0.25076747 -0.283824 -0.28731674 0.30901235 -0.4962024 -0.05980806 0.17574944 0.3367588 0.2966469 0.078298286 -0.092434734 0.033456855 0.057439752 0.024146274 -0.37221473 -0.24394935 0.05447567 0.3042447 0.08808036 -0.21881177 -0.1176307 0.09583837 -0.12610127 -0.42981517 0.26539713 -0.4313025 0.35212925 0.049890548 0.31398836 -0.075563714 -0.16391674 -0.15996778 -0.5321 -0.31515494 0.24425992 -0.35767642 0.21567619 0.17802757 -0.36529535 0.040452134 0.359194 -0.24017307
>	-0.21089545 -0.26489878 0.3122455 0.08610285 -0.11411024 -0.29938182 0.07245374 -0.25570023 0.13026631 -0.29045978 -0.0010643825 -0.12412061 0.03515186 -0.060735732 -0.37340415 0.376783 -0.19536212 0.062628314 0.2987289 0.099711835 0.034669414 0.037964392 0.268597 0.19710463 0.29420847 0.0042547733 -0.4435342 -0.095065966 -0.30355042 0.22323042 -0.23816139 -0.30403513 0.051279783 0.13001901 -0.0032353848 0.22532745 -0.17367415 0.19231655 -0.36952692 -0.01859527 0.013190687 0.07283108 0.093824714 0.02531758 -0.100605205 -0.06727398 0.053636715 -0.094983056 0.25801423 -0.13808534 0.20239365 0.103438675 0.06491872 0.20525365 -0.05717738 0.108445086 -0.25348487 0.0057620853 0.24195291 -0.43697792 0.19838615 -0.3510068 0.16985287 -0.09972535 -0.0050325617 -0.14948376 -0.06915 0.04677976 0.1917634 -0.013869323 0.1438357 0.033122525 -0.15004614 -0.019931376 0.22196063 -0.011562064 -0.07096192 0.22182873 -0.3506713 0.15365507 -0.34735993 -0.059660602 -0.03001333 0.09861399 0.043647327 -0.074022405 0.34704027 0.23885909 0.21182027 -0.023237854 -0.010518819 0.10027816 0.31270272 -0.20159498 -0.21917489 -0.004163876 0.18720882 -0.177892 0.27588755 0.23328805
?	-0.1155702 0.37603158 0.27284962 -0.03960015 0.5805125 -0.12118584 0.1996592 0.3268793 -0.6488719 -0.013859624 0.031243727 0.13110481 -0.13036072 0.05286458 0.19924569 0.0368728 0.50745964 0.23075984 0.26012656 -0.28872657 -0.086762875 -0.13992618 0.4824263 -0.24768996 -0.27847406 0.46965492 -0.2754487 -0.16311437 -0.031951297 -0.5448604 -0.37352106 0.105945826 -0.28248185 0.34893957 0.103021026 0.16147278 -0.015567839 -0.2481439 -0.037742965 -0.096497014 0.23668076 0.110483475 0.6845981 0.02325399 0.081380725 -0.22127452 -0.050997555 -0.034971714 -0.30419382 -0.2649118 -0.369008 -0.2280412 0.7065269 -0.041639313 -0.11267605 0.057621934 0.22013623 0.2300412 -0.14891261 -0.06078544 0.23931101 0.4752555 -0.12022798 0.044790998 0.2772651 0.06295541 0.16233385 -0.17744917 0.7415739 -0.09681843 -0.30265832 -0.0037318673 -0.3580348 0.11328827 -0.10987011 -0.06514857 0.054364286 -0.53462934 -0.14280249 0.016274583 -0.10649037 0.15406454 -0.14847624 -0.5227943 0.29064506 0.27050123 0.34288526 0.62011176 -0.03889993 0.47993463 -0.05338812 -0.2411958 0.4654208 -0.014891863 -0.42732894 0.36510447 -0.058543347 -0.27794752 -0.4562539 0.4447264
@	-0.13091055 -0.5345577 0.18928193 -0.09898502 0.45813453 -0.1405473 -0.56320965 -0.22630239 -0.06265253 -0.018485105 0.28968483 -0.34715065 -0.40362176 -0.23697287 -0.26354352 0.16886826 -0.090256214 -0.04534912 -0.19265383 0.517833 -0.0400969 -0.23760302 -0.2999373 0.55024874 -0.053836808 0.6154035 0.48007074 -0.3481474 0.4182917 -0.07017565 0.07070911 0.19850256 -0.08836016 -0.59358466 0.04709375 -0.6050043 -0.3079964 0.55453295 0.49200386 -0.48730886 -0.22622606 -0.22473913 -0.06769253 -0.5469675 0.28285694 -0.26712644 -0.24154264 -0.16349469 -0.2041 0.23075987 0.0654087 -0.31123847 0.14964846 -0.66651165 0.3553272 -0.18364915 0.09930096 -0.23599896 0.120258786 -0.10521738 0.023656812 0.6262971 0.48813117 0.22743161 -0.44837528 0.31151134 -0.09361714 -0.16266553 -0.39203608 -0.29510012 -0.07528223 -0.19308172 -0.048192274 -0.28619686 0.013698354 0.025419027 0.1503205 -0.7365458 -0.06662001 0.1546157 0.26241913 0.15294357 0.020655477 -0.037889913 -0.14270923 -0.79276526 0.15543707 0.13614401 0.08359371 -0.24523099 0.19487828 0.12106217 0.33175918 0.044687375 0.06628615 0.24062657 0.01131852 -0.3969664 0.6715922 0.36883098
A	-0.3062622 -0.32763666 0.2770992 -0.34318572 0.31209168 -0.16732746 0.044917747 -0.29700768 0.058206037 0.027866192 0.48839003 0.09706649 0.021371521 0.10340974 -0.102584064 0.12536046 -0.05218038 -0.08498278 -0.46546003 -0.47116983 0.23326173 -0.26377857 -0.14753065 -0.33668566 -0.12821725 0.23397887 -0.55504906 0.7621708 -0.05032046 0.45346692 0.29751614 0.33796495 -0.52888596 0.384678 -0.34233123 0.82223344 -0.49142966 0.008689057 0.48385578 -0.47961834 0.33339143 0.07977356 0.068961814 0.3251577 0.07282199 0.20306514 -0.5137788 -0.46869245 -0.104223505 0.08723191 -0.5943475 0.19451411 0.4931556 0.22467996 0.36430645 -0.50163776 -0.24349144 0.5067245 -0.40685683 -0.17482299 -0.09863399 -0.10240352 0.21671009 -0.3634161 -0.18126436 -0.40998226 -0.21742333 -0.79261035 -0.050756477 0.68138325 -0.1159081 -0.13251197 -0.43637478 0.12191888 0.1937967 0.13809861 -0.005051635 -0.23286942 -0.022360869 0.2898327 0.105974615 -0.3200066 0.6559174 0.59656215 -0.24450119 0.028242689 -0.3009802 0.49483907 -0.0135157555 -0.23154244 -0.22149684 0.00083367527 -0.13124293 0.5132065 -0.05004452 0.23266521 -0.61209404 0.2041887 0.48751158 -0.5724419
B	0.17620769 0.65701485 0.33534905 0.29860288 -0.07942569 -0.7004254 -0.08897179 -0.2936005 -0.291997 0.5657965 0.09017352 0.2073101 0.25463748 0.06808423 -0.3040673 -0.45908275 -0.0016060397 0.8018543 -0.19978419 -0.10757301 0.13593274 -0.010595059 0.29066944 -0.49928126 0.049140245 -0.061493732 -0.40611494 0.03300579 -0.2602408 -0.41979116 0.18276048 0.5429108 -0.10051166 -0.13556743 -0.17582957 -0.21963239 0.14738597 0.00815668 0.48118225 -0.2888893 0.39200646 0.28169656 0.32435364 -0.41138637 0.5162486 0.0589101 -0.504 0.09707557 -0.23256351 -0.09789442 0.16088325 0.79825634 -0.23732793 0.26520562 0.30827668 0.03446352 0.0820253 -0.19497676 0.49518746 -0.4179309 0.64521897 0.23725906 -0.34611008 0.24903964 0.19549689 0.17425272 0.13022448 0.25492847 0.80041945 0.11615601 0.41851413 -0.13028271 0.5811655 0.029403107 0.13119194 0.11575782 0.075977884 -0.38240957 0.34788558 1.0557147 -0.17731372 0.06541848 -0.24428163 -0.7916512 -0.3050424 -0.34236258 -0.1208265 0.5628905 -0.39481357 0.34435904 0.5173094 -0.17756507 0.27454427 -0.31975728 -0.2461334 0.15022476 0.3493808 -0.7854352 0.58116233 0.13888133
C	0.07488095 -0.36053854 -0.2685434 -0.032417014 0.3929169 -0.106529936 -0.74267745 -0.13106582 -0.21189919 0.59922343 0.2708109 -0.02169729 -0.11588078 0.10320947 -0.33891597 -0.17420349 0.40743914 -0.5540937 -0.2106383 -0.52652967 0.11990516 -0.19543847 -0.13015571 -0.16316387 -0.116352856 0.44753098 -0.19027537 -0.21905692 -0.122687474 0.47387278 0.00037273765 0.35406822 0.016943276 -0.18197733 -0.3197638 0.20160428 -0.044234455 -0.13973854 -0.48623538 -0.39135823 0.16225016 0.15239188 0.30615842 -0.50195235 -0.013224378 -0.25251463 -0.06831846 0.18578778 -0.3961058 -0.03177561 -0.04251629 0.2967973 0.23819575 -0.40290713 0.41155633 0.25838938 0.23410335 0.33277053 0.17765212 0.029637337 0.051498767 0.44815865 0.18693227 -0.15590367 0.19236028 -0.26658407 -0.31239322 -0.04601086 -0.010775968 0.20606339 0.16745909 0.3740151 0.3568195 -0.1284411 0.33296534 0.27085143 0.3667389 -0.23231968 -0.08240909 -0.058174122 0.16351423 -0.13275656 0.48929906 -0.2303537 -0.38944048 0.12390685 0.36176416 0.4699239 -0.059572667 -0.027003475 -0.104269624 0.07247578 -0.4652316 -0.012477726 0.27221203 -0.43961903 -0.13276519 0.3922165 -0.017952427 0.46843398
D	-0.38103682 -0.13463715 -0.5473479 0.81974286 0.09989658 -0.18597956 0.091500774 0.62235063 -0.47197422 -0.23859625 0.26031297 0.11056994 0.0053131822 0.06891978 -0.3831585 -0.32168746 -0.13814569 -0.089081265 -0.30259666 -0.25683558 -0.124881215 0.11303638 -0.10498439 -0.45920464 -0.25062883 -0.18630949 -0.14105263 -0.4439012 0.35886645 -0.05032581 0.11207364 0.750165 -0.29226366 -0.23724076 0.008637756 0.56504464 -0.03298834 -0.7495833 0.16832617 0.19785608 0.46755806 -0.07778644 -0.2409989 0.33551836 0.047862366 -0.62062067 0.1314373 0.52471095 0.010954782 -0.36691773 -0.5956342 0.17097308 0.3294521 -0.18009317 0.020749293 -0.56802213 -0.33862132 0.07288576 -0.034486644 0.175838 -0.077055655 -0.15958034 -0.21981083 0.638132 -0.5411687 -0.4504261 0.026775405 -0.41164744 -0.007562323 -0.4755375 0.09121239 0.011128217 0.2877234 -0.049832895 0.08106508 0.16473193 -0.09026214 -0.018440716 -0.027338043 -1.0504881 0.28508985 -0.36410013 -0.018186197 0.41019154 0.44480452 0.19312182 -0.20464563 -0.05786422 -0.35319108 -0.19602714 0.03464155 0.12943815 -0.037795343 0.31418335 -0.08670789 -0.36811766 0.3652068 0.2270069 -0.013386686 -0.504551
E	-0.64015317 0.18213126 -0.81811965 0.10188428 0.5874926 -0.32528305 -0.7554009 0.023016915 0.3363501 0.22621632 0.2450502 -0.0054803193 -0.3826019 -0.16590853 0.19986995 0.12192923 0.35078987 0.24792245 -0.27274057 -0.4269219 -0.44911948 -0.4323661 0.49969018 0.29062533 -0.12547554 -0.267191 -0.39114928 0.0049347067 -0.2759232 0.20227619 -0.47294018 -0.06415253 -0.041118942 0.2618218 -0.8292901 0.019093968 0.25163773 0.1348009 -0.091721624 0.44388568 0.44327116 -0.54194134 0.20112802 -0.6343013 0.050594054 -0.12131266 -0.91561294 -0.0625737 -0.05650732 0.06350687 0.20759338 -0.12430164 -0.07313051 0.120099634 -0.3265217 0.3813672 0.1509658 -0.21953788 -5.1364303e-05 0.036411755 -0.5636154 -0.21203321 0.24165623 0.08793763 0.028981611 0.4426278 -0.014669701 -0.120413646 -0.52665615 -0.11916813 0.6685014 -0.28262937 -0.15876918 -0.39462876 0.57682 -0.1310835 0.0005959859 -0.6037161 1.05309 -0.45905292 -0.20285714 -0.3724875 0.22907269 0.06503698 -0.030506728 0.020445608 -0.091180034 0.13615096 0.106180884 -0.21697375 -0.07657567 -0.41389632 0.5788977 0.1364921 0.23324835 0.05440103 -0.019874103 0.79011583 -0.14957467 -0.282023
F	-0.57672924 -0.2879016 0.07916869 0.45801333 -0.20326985 0.41319224 -0.27354062 0.038200326 -0.52637076 0.4665159 0.22452042 -0.08135061 0.05125354 -0.7222396 0.45190343 0.20089833 -0.047976553 0.103216045 -0.00609453 0.4051486 -0.39978606 -0.10397228 0.24857073 -0.07690665 0.3680631 -0.16536193 0.027118497 -0.03219635 -0.20168076 -0.13040885 0.49036366 0.28268167 -0.13631058 -0.2073048 -0.481672 -0.44466203 0.24763699 -0.09939836 0.17679127 -0.29032278 0.12225147 -0.317411 0.080847815 -0.39965472 -0.2683926 -0.31678197 -0.048605148 -0.50242877 0.13279295 0.4325659 -0.2728239 0.29675955 0.3833669 -0.14125097 -0.18228684 0.39220884 0.4453486 0.24366269 0.64175427 -0.3189273 -0.31504527 0.089443356 0.24333961 0.2417253 -0.07277307 -0.009184383 -0.65390885 -0.047384977 0.11650232 0.30768132 0.4486385 0.29207867 -0.66086483 0.012408778 0.46423233 0.49004933 0.22865193 -0.2225471 0.2993996 0.30417156 -0.47936547 -0.45383266 -0.10475938 0.22485717 -0.16753103 -0.20954171 -0.158778 -0.0110075325 -0.40184003 -0.30404907 0.40839702 0.14192751 0.022897616 0.55237883 0.24144614 0.17106847 0.13784564 -0.3960513 0.44696665 0.83473766
G	-0.27372745 0.07606825 -0.007618364 0.15474845 0.31551582 0.9812512 -0.23742363 0.28219184 0.4662696 -0.07748513 0.29105142 0.08233992 0.21050893 0.16035081 0.25614664 -0.2405589 -0.22210507 -0.15435341 -0.57072055 -0.41713434 0.18215552 -0.19341211 -0.76169395 -0.23534575 0.60439765 -0.3564996 -0.023750696 -0.46489936 0.0076427544 -0.048898526 -0.2367445 -0.40711904 0.037391223 -0.22983752 0.058642764 0.18456389 0.08857986 -0.31454974 -0.0010705143 0.36271062 0.38102797 -0.20535575 -0.20852533 0.11609167 0.7897635 0.41753376 -0.38159212 0.54472107 0.40956306 -0.1638815 -0.39467877 0.62793803 0.79261816 -0.22295952 -0.36309958 0.5986528 0.16677235 0.8959168 0.056488916 0.0042339563 -0.28581092 -0.38356805 -0.056815922 -0.034971297 -0.37533784 0.0023728907 -0.35030258 -0.28288725 -0.2914081 0.29830903 -0.27732635 0.29715887 0.20400974 -0.5672889 0.11805162 0.4306291 0.058752947 -0.40124398 0.5990836 0.40798393 0.40173537 0.34621966 0.3887939 -0.020906948 0.07586442 0.3101157 -0.0034470558 0.065626614 -0.25286835 0.24821323 0.210273 0.03554234 0.16804422 0.41221493 -0.09012419 -0.47330934 -0.010271061 0.63733125 0.11699917 0.020660691
H	-0.033376023 0.016958669 -0.9072631 -0.0889108 0.55772805 -0.074494794 -0.12304138 -0.5110196 0.7744309 -0.19802234 -0.40464428 0.050141014 0.06259182 -0.20544893 0.20711161 -0.8579292 -0.35685265 -0.4875933 -0.013271287 -0.16239852 0.055648588 -0.12776744 -0.25092295 -0.2671253 -0.053552672 0.33936846 -0.6947578 -0.63954276 0.14371592 0.39201504 -0.18735138 -0.23909661 -0.80849004 -0.4733314 0.087713994 -0.19627924 -0.28019553 -0.516969 -0.37458 -0.043022998 0.3354143 0.2922837 -0.07207373 0.08792195 0.017777994 0.25847086 0.10695061 -0.35979363 -0.368711 -0.04729905 -0.1297459 -0.10578055 0.2677337 -0.60190165 -0.15028292 0.04338114 -0.093617626 -0.017151318 -0.39543575 -0.034143053 -0.21609801 -0.116277635 0.6224344 -0.13680564 0.29581654 0.1423732 -0.6123082 -0.09749798 -0.46381468 -0.041839525 0.121131256 0.32128754 0.48380226 -0.38028145 0.6953002 -0.14974348 -0.24463573 -0.099013716 0.08378653 -0.2669694 -0.24306567 0.35242313 0.89982426 0.10916534 0.010538839 0.27910796 -0.6307093 0.24495906 -0.14080171 0.077027515 -0.23950094 -0.20372888 0.043930337 -0.3002896 0.47654378 -0.4054463 0.01225022 0.53775984 -0.033756733 -0.6780752
I	-0.567891 -0.3537367 -0.33468243 0.23984715 0.26756287 0.19538492 -0.7174436 -0.23315585 -0.3630197 0.8381779 0.14109597 0.078765064 0.040216006 0.5653188 0.21998647 0.19046757 -0.17975195 0.19875622 -0.06549196 -0.4714042 -0.38157594 0.4905718 0.14475119 0.43205184 0.37349087 0.29409567 -0.075091034 -0.22312115 -0.08949507 0.015708333 0.55232924 0.6758431 0.17551178 0.58803016 -0.26539728 0.39568722 -0.7558379 -0.28059804 0.50044507 -0.21367982 0.008511595 0.1686248 0.33490658 0.04979561 0.036801703 -0.24757195 0.11082053 -0.19359526 0.029574431 -0.22603229 -0.40674004 0.05333463 0.078650475 0.28197557 0.015026391 -0.03571946 0.18953583 0.40083843 -0.3837773 0.1569006 0.89525473 0.065333225 0.6195152 -0.39308307 -0.06586761 0.04734265 -0.15216468 -0.21701257 0.6267362 -0.20226105 0.5236885 -0.06501942 -0.28114325 -0.7000395 -0.1820994 0.084262714 0.058856755 -0.44183517 0.84250695 -0.27030098 -0.38975084 0.06582643 0.011416972 -0.14917779 -0.027692936 0.11473672 0.14628708 0.15501508 -0.41712582 -0.117331095 0.53119916 -0.05707982 -0.11047904 0.063167736 0.39912558 0.42751187 -0.10727302 -0.23334919 -0.016057229 0.36342487
J	0.58643836 -0.17061204 0.58546805 0.07113081 0.59434366 -0.28066957 -0.09591761 0.51882964 -0.41961294 0.043306507 0.019231535 -0.009302795 -0.09340551 -0.16731271 0.32051304 -0.7057122 0.5862903 -0.02687646 -0.24454272 0.2858548 -0.28367177 -0.120124824 0.40408474 -0.49457815 0.42085063 -0.051553465 -0.19239601 -0.40174413 0.33614716 0.13076746 -0.5995525 -0.494974 0.28438511 0.34762534 0.03715615 0.09364261 -0.28131455 -0.48355788 -0.33088815 -0.22976743 -0.040944412 -0.23441884 -0.33585858 0.18214288 0.48551166 -0.12976387 -0.50360745 -0.531392 0.24725108 0.021153865 0.47918972 -0.004464398 -0.28841695 -0.30152565 0.11162402 -0.054385334 0.33199126 -0.030296009 0.5285069 -0.51887566 -0.22865629 -0.32590377 -0.41085723 -0.034051836 -0.325141 0.67095286 0.31608927 -0.4374812 0.1263852 0.17032078 -0.64118195 -0.22154647 0.17880067 0.11288559 -0.41573727 -0.29562998 0.051937714 0.72238326 0.11171316 0.311567 0.02185998 -0.028755449 -0.45672452 -0.3324803 -0.5529647 0.19503745 0.18032683 0.3249315 -0.3428795 0.56917465 0.32805973 0.25271833 0.025314093 0.19981465 0.09507075 -0.026986059 -0.08091469 0.214324 -0.12601879 -0.18971992
K	0.71162635 0.4214658 0.16571806 0.39520052 -0.106779285 -0.21241724 0.40404516 0.03776516 -0.011544332 0.21436974 0.122093774 -0.009246506 -0.092074394 -0.55020356 -0.33811328 -0.5533142 -0.1224254 -0.09088183 0.281892 -0.061861493 0.18013701 -0.15714549 0.06849964 0.16283457 -0.016115844 0.26683265 -0.09098086 -0.41930446 -0.21132246 0.038150303 -0.55772984 0.32409626 -0.9605275 0.101947114 -0.018268023 -0.14613388 0.046078876 0.083291635 -0.5254408 -0.20431817 0.2765314 0.53558373 0.03274443 0.22662823 0.077165626 0.005310277 -0.2164305 0.20657967 0.17053875 -0.035601318 0.16164148 0.1114292 -0.17228721 -0.152424 0.299242 -0.82232034 0.32021013 -0.2809263 -0.29574314 -0.37015444 -0.17594106 0.37318367 -0.7367294 -0.5485251 0.12667182 -0.08867973 -0.2953934 0.27374443 -0.058450215 0.06823133 -0.20697229 0.4907663 0.12498218 -0.0076071564 0.00015911087 -0.14653647 0.17235574 -0.7904948 -0.05105651 -0.05669648 0.48914665 -0.37676734 0.21374807 -0.24577472 0.076629154 -0.12228569 -0.17865527 0.24518596 -0.08718354 -0.1617139 -0.25094315 0.032464623 0.707234 0.2643289 0.50137204 -0.042683702 -0.25516894 0.059636366 -0.13264617 -0.34018207
L	-0.016603775 0.15747552 0.050646603 -0.19439685 0.051462896 -0.23038514 -0.15549746 0.27636516 -0.12635033 0.58320045 -0.07242674 0.32789963 0.2309205 0.07348235 0.05713457 -0.77372706 -0.8537697 -0.5493261 -0.50596315 -0.325204 0.027075008 -0.09857239 -0.10836241 -0.20096761 0.78379637 -0.22969964 0.16685739 0.07732641 -0.34849346 -0.55742514 0.05947235 0.0039005876 0.38202554 0.5626775 -0.43398193 -0.5012836 -0.28503662 0.40041134 -0.063072845 -0.674397 -0.2678245 0.14559947 0.34975785 -0.1635854 0.056054577 0.077746555 -0.08049552 -0.013623476 -0.1757299 0.18312484 0.7173029 0.7204288 -0.26577178 0.09704014 -0.059941784 -0.060446113 0.049366686 0.4018867 0.124666184 0.13992001 0.11601451 -0.27095693 -0.6027209 -0.60215205 0.06265472 0.2898063 -0.22191446 -0.2950906 0.40976638 -0.04073167 0.15820664 0.7482274 -0.030250117 -0.10466486 -0.5282826 -0.24662234 0.36748478 -0.16273291 0.18330592 0.40806073 -0.08779502 -0.19562742 -0.23695484 -0.4606693 -0.24622256 -0.04095251 -0.39768368 0.15611881 -0.18238732 0.47583836 -0.53832036 0.046058416 -0.22056855 -0.08847677 0.041714266 -0.47655964 -0.32240146 -0.046855576 -0.1326585 -0.11599292
M	0.05412873 -0.19698039 -0.0048445426 0.05002609 0.27445123 0.3674167 0.16047268 0.24515384 -0.16968888 0.8666516 0.42134804 0.039829124 0.5055442 -0.6247013 0.1669689 -0.4101738 0.10695106 -0.32185024 -0.41689974 0.060613424 0.033334278 -0.06814461 0.24380565 0.40313 -0.13634484 -0.3104151 -0.61210066 -0.25033945 -0.581226 0.14406314 0.2592497 0.30669487 -0.5519221 0.30138507 -0.19166581 0.26232332 -0.5122016 -0.14975232 0.71989876 -0.06335919 -0.25182515 -0.11070608 0.44753063 -0.060948938 0.0861821 0.11018324 -0.15567659 0.44658908 0.3263915 -0.25971305 -1.2212188 0.04286959 -0.5824648 0.21448599 -0.09116714 -0.6279615 0.4141171 -0.7594868 0.008304995 0.027692407 -0.35961196 -0.0011574179 0.66403097 0.4721811 0.23428223 -0.018969648 -0.060823858 0.25772703 -0.03152281 -0.27132317 0.10452747 -0.04221762 -0.20888221 -0.011164151 0.31452706 0.2152813 0.37248015 -0.091632985 0.6309579 -0.22098756 -0.43300152 0.21565576 0.048148684 0.0985262 -0.16133347 0.112328574 -0.42978168 -0.15760665 -0.34785154 -0.22748576 -0.3458104 0.22849932 0.27971035 0.32618248 0.0048446283 0.23439606 -0.22552595 0.06860306 0.47288454 0.22637248
N	0.08412797 0.22648051 0.052318305 0.5379503 0.42545533 -0.30259198 0.12399021 0.05364671 -0.083730035 0.20842856 0.43743646 0.2547032 -0.31796667 -0.16475476 0.14685512 -0.47260535 -0.07520018 0.40379667 0.22802845 -0.03292466 0.42541164 0.10518773 0.4564768 0.17738318 -0.74373794 0.061780512 0.120980054 -0.30301625 -0.05137393 -0.29687223 -0.015846789 0.49530613 -0.11427665 -0.7498916 -0.41444072 0.0805085 -0.052900713 0.02311227 0.08202663 -0.35164398 0.22760516 0.15091623 0.08169438 0.38739717 -0.62814164 0.009344742 -0.2032328 0.75206566 0.16230233 0.38683736 0.0736531 0.13911547 0.39120987 -0.015468359 -0.018099785 0.017496444 0.3357369 -0.4390185 0.018024702 0.27042872 -0.15227896 -0.20215008 -0.13311476 0.082346156 0.0051937476 0.5090952 -0.6710623 0.09233861 -0.59414226 0.4687256 -0.6631285 0.5549786 0.024085153 -0.41498882 -0.008167889 0.3201842 0.5930043 -0.13232534 0.90493625 0.20467809 0.7650552 -0.41664797 -0.45273393 -0.0530947 0.65237474 -0.57251054 0.4702833 0.024275783 0.048162345 0.21360421 0.1329728 -0.027240455 0.6535808 -0.14277114 0.44785327 -0.113070056 0.22913824 0.4610271 0.5132082 -0.3395087
O	0.019308154 0.008601103 -0.64771396 0.09225084 0.015217498 0.07129752 -0.40747535 0.3329683 0.042680703 0.78415847 -0.151732 -0.104872406 0.23242797 -0.18540752 -0.18105191 -0.048251383 0.15161343 -0.004718736 -0.5126423 0.21366054 0.09949616 0.24538322 -0.38509223 0.3762427 0.45520794 -0.051312342 -0.19492285 -0.0047675036 -0.19135368 0.11304463 -0.19028112 -0.6266383 0.23365909 0.5614627 -0.56170595 0.72763 0.24577287 -0.08418605 -0.34403813 0.19794965 0.46200013 -0.0067137554 0.115769915 0.2719876 0.037655484 -0.058935773 0.0114939995 0.20187414 -0.44709712 0.07630356 -0.25260732 0.22103378 0.0012663007 -0.45940706 0.47383118 -0.5564472 -0.6295169 -0.08416161 0.10682977 -0.21665871 0.2575176 0.10069492 -0.08838135 -0.33287516 -0.88032264 0.14907806 -0.101325855 0.25341842 -0.31062958 -0.16934022 0.29418448 -0.6656013 -0.16164245 0.14444375 0.42865837 0.29577106 -0.32385966 0.40015137 0.30597803 -0.13992089 0.30978462 -0.10014024 0.4574225 -0.31078428 -0.5308473 0.4205364 -0.027931765 -0.2648489 -0.67134196 -0.5332046 -0.118059814 0.35115793 -0.15190381 -0.18195671 0.046713915 -0.33246708 -0.4857779 0.37080455 -0.52583706 -0.09067255
P	-0.05661476 -0.40085372 -0.078618534 0.0025553778 -0.24361353 -0.41303283 -0.20865896 -0.22796303 -0.0415879 -0.03285198 -0.35901085 -0.3276345 0.15653795 -0.3790109 0.023299739 -0.5191294 -0.09016 0.23501745 -0.04753785 -0.4184412 -0.2140856 -0.2021329 -0.19588014 0.049174443 0.0336321 0.51535094 0.9543358 -0.46382165 -0.48330316 -0.4407181 -0.17065506 0.49225473 -0.18774033 -0.15489575 -0.3088416 -0.21858391 -0.2957157 0.109207466 0.3886934 -0.65290236 0.25239524 -0.3542876 0.050359234 0.14221667 -0.52490854 0.13655843 0.7397068 0.4212769 0.2713528 0.36656058 -0.45822757 0.39215666 0.29341692 -0.45640364 0.083910495 0.35237598 0.6447762 0.18100362 -0.20305112 0.26265144 0.2050978 -0.05876658 0.25251856 -0.29324538 0.033584148 -0.08460941 0.38977045 0.15871532 0.15440527 -0.41378817 0.07539213 0.64536774 0.45567402 -0.295431 -0.45600602 0.073057875 0.05786431 -0.24100968 0.57791585 -0.2758927 -0.07500536 -0.98644507 -0.27574447 0.035206303 0.20430559 0.034845896 -0.45746014 -0.21821637 0.2016013 0.024605691 0.4893375 0.16798697 -0.58922243 -0.28920957 -0.11446832 -1.0201159 -0.3099515 1.1428217 0.11196728 -0.03508778
Q	0.1617863 0.0994802 0.14955097 -0.16208398 0.014961131 0.024427071 0.7505872 0.08372751 -0.29536703 0.02677323 0.1289751 0.47098494 0.030051373 -0.07711775 0.13636555 0.4116484 0.02313678 -0.08106553 0.24033204 -0.10115291 -0.20911035 0.00053067505 0.29702294 -0.10363557 -0.3738463 -0.07145717 -0.08133134 0.18162242 -0.12325862 -0.54848707 -0.6258341 0.28626406 -0.24050698 -0.035237968 -0.3977953 -0.26572928 0.17646429 -0.22237809 0.36544287 -0.030459106 -0.020231113 0.04601963 -0.16209579 0.5416288 0.1322916 0.5165522 -0.1264438 0.16225675 0.27045494 -0.50081813 -0.07353306 0.25303698 -0.37456107 -0.1738038 0.0018678606 -0.13557237 -0.40746534 0.07402247 -0.20260116 0.019852176 0.14035907 -0.052248977 0.42135802 0.26235208 -0.13877834 0.50801134 0.14555633 0.26346788 -0.35121304 -0.017396798 -0.11406232 -0.4790163 -0.023353502 -0.45097554 0.504996 0.08964451 -0.44302887 -0.17136398 0.46426797 0.6126427 -0.25597867 0.12646358 -0.6371194 0.5823259 -0.31142998 -0.24612263 -0.22844434 -0.032754235 0.29891115 0.18484204 0.17920734 -0.61804926 0.62196356 -0.39174545 0.63669086 0.13085091 0.14113238 -0.40245342 -0.3092499 0.56605446
R	0.03821166 0.2228364 -0.62949306 0.4365189 0.26769367 0.05515302 -0.22733797 0.37761483 0.15138957 0.6375759 -0.22814147 -0.12771696 0.5010532 -0.21065988 -0.20901923 0.009001631 -0.28895357 -0.38692224 0.116572335 -0.06385878 -0.15250668 -0.01776519 0.007723488 0.22832274 -0.12079492 0.1799508 -0.051753767 -0.2313395 -0.47801623 0.9591338 -0.30818376 -0.3444018 -0.5247269 -0.26966268 0.15534875 0.12452401 -0.118104994 -0.11867988 0.303672 -0.31376675 0.4899088 0.29033375 0.31009838 0.12826358 0.5841447 0.45019275 -0.3627871 0.14102575 -0.23641598 0.23552838 -0.027687244 0.051864147 0.20392627 -0.118438035 0.1700247 -0.0078106746 0.0075184517 0.29827935 -0.025266614 0.61397755 -0.113947846 0.0879012 0.18099326 0.7464683 -0.116037376 0.13539517 -0.33466378 -0.13798118 -0.37250882 -0.33538166 -0.04172439 -0.3556257 0.41958225 -0.6645727 -0.2162812 -0.60512847 -0.3043807 -0.4056124 0.6080631 0.59461355 0.16426954 -0.11209744 -0.7980931 -0.35434705 -0.13061908 0.5018384 -0.44703597 0.82460225 -0.45967934 0.050405994 0.60000074 -0.44300562 0.43809554 0.18994972 0.063971885 -0.0025564767 -0.3968613 0.08260368 0.14649698 -0.031661168
S	0.02849587 0.01850899 -0.71370625 0.1684975 -0.38540947 -0.3244201 0.02520898 -0.22611159 -0.12429083 0.118499205 0.22727095 0.16346204 -0.15362506 0.2016999 0.05102791 -0.35014272 0.35061365 -0.4821173 -0.1043019 -0.37911633 0.038653754 0.2034119 -0.16834167 0.0024634376 0.06749901 0.28966588 -0.36486924 -0.13598125 0.29542696 -0.2166135 0.13489889 -0.46299708 0.2872635 0.23604862 -0.20166354 0.09291865 0.19765826 0.65330863 0.25630885 0.32629976 0.26526436 0.434712 0.6196532 -0.023278259 -0.50158805 0.29102355 0.14269522 0.38414708 0.29099214 -0.23193955 -0.30147243 0.087613136 0.494602 -0.15307213 -0.3925353 0.5671418 -0.8826509 0.018640544 0.011759423 0.48310155 0.0249126 -0.30011398 0.027648296 -0.28805888 -0.34236482 0.23546474 0.17401461 0.36486247 -0.059816837 -0.1295398 -0.17256916 -0.13392209 0.030676 0.115328304 -0.13150145 -0.40042412 -0.044915136 -0.29610038 0.018204518 0.22397684 -0.063729584 0.69410944 -0.47809622 -0.7591529 0.45112532 1.0424411 0.41512775 -0.15297325 0.28403798 0.30513045 0.054759268 -0.53916514 0.26828372 0.39189476 0.09639533 0.24655592 -0.38340753 -0.4021181 -0.8536118 -0.27569816
T	-0.13195297 0.30255458 -0.3671192 0.48294112 -0.01638928 0.38755423 -0.7871943 -0.2972798 -0.008244768 0.5225186 -0.06560476 0.13829829 -0.36254156 -0.13495965 -0.13809718 0.4296689 -0.28036636 0.06343965 -0.80844426 0.024248302 0.31396085 -0.012737423 -0.11701092 -0.107969 0.17378098 0.3666262 -0.42763364 -0.22599423 -0.62302697 -0.082504585 0.32186365 0.20709401 -0.15137228 0.18190925 -0.14093591 0.9627951 -0.44283146 -0.050547227 -0.082066454 -0.1414315 0.52367043 0.12785813 0.04715055 0.17800263 -0.2889968 0.09139298 -0.7274219 0.60091555 -0.16688487 -0.016296275 0.08996661 0.022531684 -0.12213454 0.0016214997 -0.11901291 -0.0009189993 -0.23535493 0.11685108 0.3725375 0.24804 -0.10462399 0.06841193 0.22580352 -0.24448718 0.34295464 0.18408932 -0.18586616 -0.15441209 0.09339202 -0.2935914 -0.21486193 -0.5736759 0.175148 0.3080371 -0.09321731 0.37911844 0.014256451 -0.394486 0.9310991 0.19537923 -0.052777946 0.5762691 0.32410538 -0.47230458 0.14891714 -0.120587245 -0.13515368 0.15402815 0.06300637 -0.09973459 0.362143 -0.012679994 0.493864 0.7616651 -0.2392957 -0.3290149 -0.20884925 0.528624 0.3104122 -0.039093453
U	0.12999226 -0.06567372 -0.09211962 0.0739734 -0.16215983 -0.18864569 0.29764718 1.1599526 -0.062447257 0.32343668 0.17339367 -0.6167227 -0.55163056 -0.13003607 0.22085197 0.11562258 -0.124065086 0.51944715 0.37460658 -0.33765525 0.03199007 -0.6659695 -0.21875611 -0.29882798 0.3819244 -0.32489747 0.26237547 0.1822556 0.26788086 0.32623428 0.037809104 -0.5116971 -0.17915794 -0.03445686 -0.5280922 -0.24154708 0.32384497 -0.5346304 0.18505451 0.12657622 -0.42423004 -0.3565945 -0.1033172 0.31333098 0.1765001 0.30686158 0.2107069 0.5325987 -0.09435617 0.06528169 -0.66079664 0.12020081 -0.02072687 -0.4319023 0.11827642 0.14133658 0.07118794 0.5068896 -0.8026241 -0.07085781 0.043119974 0.10150602 -0.015335783 -0.12205739 -0.40566096 0.09485906 -0.15452155 0.2679751 0.092675515 -0.35911554 -0.11839737 0.6414064 0.4567696 0.1930748 -0.41469914 0.70545655 0.4120139 -0.2946203 0.4442898 -0.23328851 0.04681492 -0.18109776 -0.47133216 0.37476265 0.01661864 0.13939103 0.6760868 -0.04128386 -0.5761229 0.13443094 -0.33316362 -0.36489668 -0.28919894 0.04189256 0.1848473 -0.4034864 0.3041363 0.23130566 -0.06856065 -0.28919435
